<?xml version="1.0"?>
<opencv_storage>
<cascade>
  <stageType>BOOST</stageType>
  <featureType>HAAR</featureType>
  <height>24</height>
  <width>24</width>
  <stageParams>
    <boostType>GAB</boostType>
    <minHitRate>9.9500000476837158e-01</minHitRate>
    <maxFalseAlarm>5.0000000000000000e-01</maxFalseAlarm>
    <weightTrimRate>9.4999998807907104e-01</weightTrimRate>
    <maxDepth>1</maxDepth>
    <maxWeakCount>100</maxWeakCount></stageParams>
  <featureParams>
    <maxCatCount>0</maxCatCount>
    <featSize>1</featSize>
    <mode>BASIC</mode></featureParams>
  <stageNum>20</stageNum>
  <stages>
    <!-- stage 0 -->
    <_>
      <maxWeakCount>6</maxWeakCount>
      <stageThreshold>-1.7863328456878662e+00</stageThreshold>
      <weakClassifiers>
        <_>
          <internalNodes>
            0 -1 58 4.6964876353740692e-02</internalNodes>
          <leafValues>
            -8.2532751560211182e-01 3.2786884903907776e-01</leafValues></_>
        <_>
          <internalNodes>
            0 -1 220 1.0178633965551853e-02</internalNodes>
          <leafValues>
            -4.6997845172882080e-01 4.8952484130859375e-01</leafValues></_>
        <_>
          <internalNodes>
            0 -1 91 4.5263897627592087e-03</internalNodes>
          <leafValues>
            -6.7837345600128174e-01 3.2717183232307434e-01</leafValues></_>
        <_>
          <internalNodes>
            0 -1 168 7.2315391153097153e-03</internalNodes>
          <leafValues>
            -2.7266004681587219e-01 6.9849449396133423e-01</leafValues></_>
        <_>
          <internalNodes>
            0 -1 22 1.4158877730369568e-01</internalNodes>
          <leafValues>
            -2.8630802035331726e-01 5.4420804977416992e-01</leafValues></_>
        <_>
          <internalNodes>
            0 -1 218 -8.7559334933757782e-03</internalNodes>
          <leafValues>
            6.5433907508850098e-01 -2.2483988106250763e-01</leafValues></_></weakClassifiers></_>
    <!-- stage 1 -->
    <_>
      <maxWeakCount>8</maxWeakCount>
      <stageThreshold>-1.9683041572570801e+00</stageThreshold>
      <weakClassifiers>
        <_>
          <internalNodes>
            0 -1 99 3.0170001089572906e-02</internalNodes>
          <leafValues>
            -6.7992597818374634e-01 4.3034055829048157e-01</leafValues></_>
        <_>
          <internalNodes>
            0 -1 282 -8.8224257342517376e-04</internalNodes>
          <leafValues>
            6.3227027654647827e-01 -3.8247495889663696e-01</leafValues></_>
        <_>
          <internalNodes>
            0 -1 296 -1.3334140021470375e-05</internalNodes>
          <leafValues>
            5.2161371707916260e-01 -3.5001513361930847e-01</leafValues></_>
        <_>
          <internalNodes>
            0 -1 261 1.9157644361257553e-02</internalNodes>
          <leafValues>
            -6.3661646842956543e-01 3.1346613168716431e-01</leafValues></_>
        <_>
          <internalNodes>
            0 -1 102 4.4595454819500446e-03</internalNodes>
          <leafValues>
            -2.0251764357089996e-01 7.2322398424148560e-01</leafValues></_>
        <_>
          <internalNodes>
            0 -1 237 -2.2243233979679644e-04</internalNodes>
          <leafValues>
            6.9841754436492920e-01 -2.3615987598896027e-01</leafValues></_>
        <_>
          <internalNodes>
            0 -1 285 -7.7950104605406523e-04</internalNodes>
          <leafValues>
            5.3384011983871460e-01 -3.0666473507881165e-01</leafValues></_>
        <_>
          <internalNodes>
            0 -1 289 2.8897944139316678e-04</internalNodes>
          <leafValues>
            -2.8419584035873413e-01 6.1905610561370850e-01</leafValues></_></weakClassifiers></_>
    <!-- stage 2 -->
    <_>
      <maxWeakCount>8</maxWeakCount>
      <stageThreshold>-1.1405681371688843e+00</stageThreshold>
      <weakClassifiers>
        <_>
          <internalNodes>
            0 -1 41 1.9471503794193268e-02</internalNodes>
          <leafValues>
            -6.2830185890197754e-01 2.0348836481571198e-01</leafValues></_>
        <_>
          <internalNodes>
            0 -1 170 -1.6276814276352525e-03</internalNodes>
          <leafValues>
            6.8153774738311768e-01 -2.7647206187248230e-01</leafValues></_>
        <_>
          <internalNodes>
            0 -1 14 -2.9241696000099182e-02</internalNodes>
          <leafValues>
            -8.3733749389648438e-01 2.0392392575740814e-01</leafValues></_>
        <_>
          <internalNodes>
            0 -1 235 4.0819140849635005e-04</internalNodes>
          <leafValues>
            -2.1763248741626740e-01 6.5129870176315308e-01</leafValues></_>
        <_>
          <internalNodes>
            0 -1 264 8.1995492801070213e-03</internalNodes>
          <leafValues>
            -2.4735841155052185e-01 5.9549564123153687e-01</leafValues></_>
        <_>
          <internalNodes>
            0 -1 204 1.0891731828451157e-02</internalNodes>
          <leafValues>
            -2.4677559733390808e-01 5.9943050146102905e-01</leafValues></_>
        <_>
          <internalNodes>
            0 -1 175 -5.3575012832880020e-02</internalNodes>
          <leafValues>
            -9.3682885169982910e-01 1.9396410882472992e-01</leafValues></_>
        <_>
          <internalNodes>
            0 -1 21 -2.0851112902164459e-02</internalNodes>
          <leafValues>
            2.7649161219596863e-01 -4.8603412508964539e-01</leafValues></_></weakClassifiers></_>
    <!-- stage 3 -->
    <_>
      <maxWeakCount>9</maxWeakCount>
      <stageThreshold>-9.6721976995468140e-01</stageThreshold>
      <weakClassifiers>
        <_>
          <internalNodes>
            0 -1 201 4.6758697135373950e-04</internalNodes>
          <leafValues>
            -5.9785521030426025e-01 2.5614035129547119e-01</leafValues></_>
        <_>
          <internalNodes>
            0 -1 36 1.2325725518167019e-02</internalNodes>
          <leafValues>
            -3.6026805639266968e-01 4.6194580197334290e-01</leafValues></_>
        <_>
          <internalNodes>
            0 -1 210 2.1138894371688366e-03</internalNodes>
          <leafValues>
            -1.9765534996986389e-01 6.7547523975372314e-01</leafValues></_>
        <_>
          <internalNodes>
            0 -1 163 -4.8982193693518639e-03</internalNodes>
          <leafValues>
            5.5277830362319946e-01 -2.3424112796783447e-01</leafValues></_>
        <_>
          <internalNodes>
            0 -1 245 -9.0191792696714401e-03</internalNodes>
          <leafValues>
            5.2729666233062744e-01 -2.2638167440891266e-01</leafValues></_>
        <_>
          <internalNodes>
            0 -1 169 7.2786271572113037e-02</internalNodes>
          <leafValues>
            -2.5584191083908081e-01 4.8731502890586853e-01</leafValues></_>
        <_>
          <internalNodes>
            0 -1 154 1.9805906340479851e-03</internalNodes>
          <leafValues>
            -1.5966235101222992e-01 6.8927031755447388e-01</leafValues></_>
        <_>
          <internalNodes>
            0 -1 74 -4.7089830040931702e-03</internalNodes>
          <leafValues>
            5.0307488441467285e-01 -2.3853577673435211e-01</leafValues></_>
        <_>
          <internalNodes>
            0 -1 73 2.7552321553230286e-03</internalNodes>
          <leafValues>
            -1.5486198663711548e-01 5.4954332113265991e-01</leafValues></_></weakClassifiers></_>
    <!-- stage 4 -->
    <_>
      <maxWeakCount>10</maxWeakCount>
      <stageThreshold>-1.2630736827850342e+00</stageThreshold>
      <weakClassifiers>
        <_>
          <internalNodes>
            0 -1 294 -5.2549550309777260e-03</internalNodes>
          <leafValues>
            4.6341463923454285e-01 -5.4193550348281860e-01</leafValues></_>
        <_>
          <internalNodes>
            0 -1 57 -2.1032871678471565e-02</internalNodes>
          <leafValues>
            3.6112600564956665e-01 -3.4779059886932373e-01</leafValues></_>
        <_>
          <internalNodes>
            0 -1 1 4.3215893208980560e-02</internalNodes>
          <leafValues>
            1.4220371842384338e-01 -6.9256049394607544e-01</leafValues></_>
        <_>
          <internalNodes>
            0 -1 275 3.0224549118429422e-04</internalNodes>
          <leafValues>
            -2.0716159045696259e-01 4.5333564281463623e-01</leafValues></_>
        <_>
          <internalNodes>
            0 -1 246 -8.7776058353483677e-04</internalNodes>
          <leafValues>
            4.3388611078262329e-01 -2.7199152112007141e-01</leafValues></_>
        <_>
          <internalNodes>
            0 -1 3 -9.9060991778969765e-03</internalNodes>
          <leafValues>
            -6.2875121831893921e-01 1.9360129535198212e-01</leafValues></_>
        <_>
          <internalNodes>
            0 -1 216 -6.2201090622693300e-04</internalNodes>
          <leafValues>
            6.0919225215911865e-01 -2.1135979890823364e-01</leafValues></_>
        <_>
          <internalNodes>
            0 -1 105 2.3126662708818913e-03</internalNodes>
          <leafValues>
            -2.2797262668609619e-01 4.8258128762245178e-01</leafValues></_>
        <_>
          <internalNodes>
            0 -1 302 2.1737450151704252e-04</internalNodes>
          <leafValues>
            -1.8778792023658752e-01 5.5103963613510132e-01</leafValues></_>
        <_>
          <internalNodes>
            0 -1 135 -4.2631626129150391e-03</internalNodes>
          <leafValues>
            4.9657160043716431e-01 -1.9999717175960541e-01</leafValues></_></weakClassifiers></_>
    <!-- stage 5 -->
    <_>
      <maxWeakCount>10</maxWeakCount>
      <stageThreshold>-1.3258800506591797e+00</stageThreshold>
      <weakClassifiers>
        <_>
          <internalNodes>
            0 -1 154 2.6352929417043924e-03</internalNodes>
          <leafValues>
            -5.3658539056777954e-01 3.6781609058380127e-01</leafValues></_>
        <_>
          <internalNodes>
            0 -1 258 -1.3723343145102262e-03</internalNodes>
          <leafValues>
            3.1447261571884155e-01 -3.7113457918167114e-01</leafValues></_>
        <_>
          <internalNodes>
            0 -1 4 1.2319048866629601e-02</internalNodes>
          <leafValues>
            1.3713300228118896e-01 -8.1523627042770386e-01</leafValues></_>
        <_>
          <internalNodes>
            0 -1 76 1.2415382079780102e-03</internalNodes>
          <leafValues>
            -3.0192816257476807e-01 4.3973490595817566e-01</leafValues></_>
        <_>
          <internalNodes>
            0 -1 51 -6.2484622001647949e-02</internalNodes>
          <leafValues>
            -7.0284426212310791e-01 1.6295576095581055e-01</leafValues></_>
        <_>
          <internalNodes>
            0 -1 199 -3.5272265085950494e-04</internalNodes>
          <leafValues>
            4.3151494860649109e-01 -2.6727601885795593e-01</leafValues></_>
        <_>
          <internalNodes>
            0 -1 333 5.9492223954293877e-05</internalNodes>
          <leafValues>
            -2.5057980418205261e-01 3.6684086918830872e-01</leafValues></_>
        <_>
          <internalNodes>
            0 -1 254 -1.4715434983372688e-02</internalNodes>
          <leafValues>
            2.9467812180519104e-01 -3.1072479486465454e-01</leafValues></_>
        <_>
          <internalNodes>
            0 -1 167 1.3694926747120917e-04</internalNodes>
          <leafValues>
            -2.2879450023174286e-01 4.5947310328483582e-01</leafValues></_>
        <_>
          <internalNodes>
            0 -1 324 -1.3599297031760216e-02</internalNodes>
          <leafValues>
            -7.0385116338729858e-01 1.4777064323425293e-01</leafValues></_></weakClassifiers></_>
    <!-- stage 6 -->
    <_>
      <maxWeakCount>12</maxWeakCount>
      <stageThreshold>-1.5755258798599243e+00</stageThreshold>
      <weakClassifiers>
        <_>
          <internalNodes>
            0 -1 253 3.3113211393356323e-03</internalNodes>
          <leafValues>
            -5.2088260650634766e-01 4.8148149251937866e-01</leafValues></_>
        <_>
          <internalNodes>
            0 -1 232 5.8963254559785128e-04</internalNodes>
          <leafValues>
            -2.1180160343647003e-01 5.7455831766128540e-01</leafValues></_>
        <_>
          <internalNodes>
            0 -1 0 1.4147797599434853e-02</internalNodes>
          <leafValues>
            2.3132096230983734e-01 -4.5744177699089050e-01</leafValues></_>
        <_>
          <internalNodes>
            0 -1 238 1.0102060623466969e-03</internalNodes>
          <leafValues>
            -1.8002362549304962e-01 5.2580529451370239e-01</leafValues></_>
        <_>
          <internalNodes>
            0 -1 97 -8.5449148900806904e-04</internalNodes>
          <leafValues>
            5.8184564113616943e-01 -1.5056385099887848e-01</leafValues></_>
        <_>
          <internalNodes>
            0 -1 188 1.5851419884711504e-03</internalNodes>
          <leafValues>
            -2.0279298722743988e-01 4.6292331814765930e-01</leafValues></_>
        <_>
          <internalNodes>
            0 -1 289 2.6606126994010992e-05</internalNodes>
          <leafValues>
            -2.4354073405265808e-01 3.5332381725311279e-01</leafValues></_>
        <_>
          <internalNodes>
            0 -1 120 2.6562220882624388e-03</internalNodes>
          <leafValues>
            -1.8209375441074371e-01 5.9810495376586914e-01</leafValues></_>
        <_>
          <internalNodes>
            0 -1 318 -1.2295426568016410e-03</internalNodes>
          <leafValues>
            5.5738407373428345e-01 -1.4323411881923676e-01</leafValues></_>
        <_>
          <internalNodes>
            0 -1 288 -1.3375079106481280e-05</internalNodes>
          <leafValues>
            4.0197831392288208e-01 -2.2251884639263153e-01</leafValues></_>
        <_>
          <internalNodes>
            0 -1 134 8.5526891052722931e-03</internalNodes>
          <leafValues>
            -1.5938948094844818e-01 5.8808982372283936e-01</leafValues></_>
        <_>
          <internalNodes>
            0 -1 30 8.1139594316482544e-02</internalNodes>
          <leafValues>
            -3.3948087692260742e-01 3.0344802141189575e-01</leafValues></_></weakClassifiers></_>
    <!-- stage 7 -->
    <_>
      <maxWeakCount>18</maxWeakCount>
      <stageThreshold>-1.2889426946640015e+00</stageThreshold>
      <weakClassifiers>
        <_>
          <internalNodes>
            0 -1 277 -7.4222963303327560e-03</internalNodes>
          <leafValues>
            -1.8940396606922150e-01 -6.9799691438674927e-01</leafValues></_>
        <_>
          <internalNodes>
            0 -1 313 -3.0237904866226017e-04</internalNodes>
          <leafValues>
            3.7628507614135742e-01 -2.4576048552989960e-01</leafValues></_>
        <_>
          <internalNodes>
            0 -1 106 -2.7700397372245789e-01</internalNodes>
          <leafValues>
            -9.8177808523178101e-01 8.5530079901218414e-02</leafValues></_>
        <_>
          <internalNodes>
            0 -1 63 8.3057448267936707e-02</internalNodes>
          <leafValues>
            -2.3614148795604706e-01 3.7927943468093872e-01</leafValues></_>
        <_>
          <internalNodes>
            0 -1 316 -2.0381878130137920e-03</internalNodes>
          <leafValues>
            4.7361907362937927e-01 -1.6412578523159027e-01</leafValues></_>
        <_>
          <internalNodes>
            0 -1 49 3.3775799238355830e-05</internalNodes>
          <leafValues>
            -3.4932899475097656e-01 2.0932742953300476e-01</leafValues></_>
        <_>
          <internalNodes>
            0 -1 330 -1.6347248107194901e-02</internalNodes>
          <leafValues>
            -5.7995527982711792e-01 1.4941842854022980e-01</leafValues></_>
        <_>
          <internalNodes>
            0 -1 172 -2.1997049916535616e-03</internalNodes>
          <leafValues>
            5.5068588256835938e-01 -1.7201814055442810e-01</leafValues></_>
        <_>
          <internalNodes>
            0 -1 293 -1.2649323325604200e-03</internalNodes>
          <leafValues>
            6.9363337755203247e-01 -7.1321949362754822e-02</leafValues></_>
        <_>
          <internalNodes>
            0 -1 155 -1.3100649230182171e-02</internalNodes>
          <leafValues>
            4.6409708261489868e-01 -1.5011152625083923e-01</leafValues></_>
        <_>
          <internalNodes>
            0 -1 301 1.0894726961851120e-02</internalNodes>
          <leafValues>
            1.7481684684753418e-01 -4.5015016198158264e-01</leafValues></_>
        <_>
          <internalNodes>
            0 -1 276 -1.3413554988801479e-02</internalNodes>
          <leafValues>
            4.4785585999488831e-01 -1.8032218515872955e-01</leafValues></_>
        <_>
          <internalNodes>
            0 -1 87 1.3933305628597736e-02</internalNodes>
          <leafValues>
            -1.9086629152297974e-01 3.7365046143531799e-01</leafValues></_>
        <_>
          <internalNodes>
            0 -1 247 -2.5237970985472202e-03</internalNodes>
          <leafValues>
            4.4654926657676697e-01 -1.7706985771656036e-01</leafValues></_>
        <_>
          <internalNodes>
            0 -1 212 -7.0756878703832626e-03</internalNodes>
          <leafValues>
            4.2512965202331543e-01 -1.9588692486286163e-01</leafValues></_>
        <_>
          <internalNodes>
            0 -1 26 9.8574459552764893e-02</internalNodes>
          <leafValues>
            -2.9085221886634827e-01 2.9754665493965149e-01</leafValues></_>
        <_>
          <internalNodes>
            0 -1 173 -2.7071330696344376e-03</internalNodes>
          <leafValues>
            4.6777909994125366e-01 -1.8200659751892090e-01</leafValues></_>
        <_>
          <internalNodes>
            0 -1 153 5.4017570801079273e-03</internalNodes>
          <leafValues>
            -1.1193371564149857e-01 7.2073388099670410e-01</leafValues></_></weakClassifiers></_>
    <!-- stage 8 -->
    <_>
      <maxWeakCount>18</maxWeakCount>
      <stageThreshold>-1.3483830690383911e+00</stageThreshold>
      <weakClassifiers>
        <_>
          <internalNodes>
            0 -1 321 -1.3359388336539268e-02</internalNodes>
          <leafValues>
            6.4846418797969818e-02 -5.5355536937713623e-01</leafValues></_>
        <_>
          <internalNodes>
            0 -1 127 3.5170377232134342e-03</internalNodes>
          <leafValues>
            -1.6995902359485626e-01 5.8571213483810425e-01</leafValues></_>
        <_>
          <internalNodes>
            0 -1 78 1.1297685652971268e-01</internalNodes>
          <leafValues>
            -2.4798546731472015e-01 2.9144081473350525e-01</leafValues></_>
        <_>
          <internalNodes>
            0 -1 248 -3.0493647500406951e-05</internalNodes>
          <leafValues>
            2.9530155658721924e-01 -2.4116191267967224e-01</leafValues></_>
        <_>
          <internalNodes>
            0 -1 295 -2.1599110215902328e-02</internalNodes>
          <leafValues>
            4.2403179407119751e-01 -1.5845412015914917e-01</leafValues></_>
        <_>
          <internalNodes>
            0 -1 32 1.0609697550535202e-02</internalNodes>
          <leafValues>
            -1.5076640248298645e-01 4.0423914790153503e-01</leafValues></_>
        <_>
          <internalNodes>
            0 -1 265 -2.4887612089514732e-03</internalNodes>
          <leafValues>
            4.1497150063514709e-01 -1.3779591023921967e-01</leafValues></_>
        <_>
          <internalNodes>
            0 -1 334 -5.8376835659146309e-03</internalNodes>
          <leafValues>
            4.1467562317848206e-01 -1.6815645992755890e-01</leafValues></_>
        <_>
          <internalNodes>
            0 -1 81 3.2589253038167953e-02</internalNodes>
          <leafValues>
            -1.0268059372901917e-01 6.0488170385360718e-01</leafValues></_>
        <_>
          <internalNodes>
            0 -1 193 -1.4601813163608313e-03</internalNodes>
          <leafValues>
            5.2017033100128174e-01 -1.0997391492128372e-01</leafValues></_>
        <_>
          <internalNodes>
            0 -1 260 -1.2244805693626404e-02</internalNodes>
          <leafValues>
            -6.1463665962219238e-01 1.0387296974658966e-01</leafValues></_>
        <_>
          <internalNodes>
            0 -1 269 2.1303256507962942e-03</internalNodes>
          <leafValues>
            -2.7154940366744995e-01 2.5126433372497559e-01</leafValues></_>
        <_>
          <internalNodes>
            0 -1 308 -4.3562399223446846e-03</internalNodes>
          <leafValues>
            5.0330996513366699e-01 -1.3072299957275391e-01</leafValues></_>
        <_>
          <internalNodes>
            0 -1 132 3.0531967058777809e-02</internalNodes>
          <leafValues>
            -1.4595486223697662e-01 4.9240165948867798e-01</leafValues></_>
        <_>
          <internalNodes>
            0 -1 111 -2.2117236629128456e-02</internalNodes>
          <leafValues>
            4.1771823167800903e-01 -1.5753275156021118e-01</leafValues></_>
        <_>
          <internalNodes>
            0 -1 239 6.7407749593257904e-03</internalNodes>
          <leafValues>
            -1.1032329499721527e-01 5.7823109626770020e-01</leafValues></_>
        <_>
          <internalNodes>
            0 -1 53 -3.3160849852720276e-05</internalNodes>
          <leafValues>
            2.8631475567817688e-01 -2.3151147365570068e-01</leafValues></_>
        <_>
          <internalNodes>
            0 -1 306 -5.2314875647425652e-03</internalNodes>
          <leafValues>
            5.3119540214538574e-01 -1.3101156055927277e-01</leafValues></_></weakClassifiers></_>
    <!-- stage 9 -->
    <_>
      <maxWeakCount>18</maxWeakCount>
      <stageThreshold>-1.2502813339233398e+00</stageThreshold>
      <weakClassifiers>
        <_>
          <internalNodes>
            0 -1 103 9.5955040305852890e-03</internalNodes>
          <leafValues>
            -4.9841773509979248e-01 2.4285714328289032e-01</leafValues></_>
        <_>
          <internalNodes>
            0 -1 195 -3.4948270767927170e-03</internalNodes>
          <leafValues>
            3.6530330777168274e-01 -1.9223068654537201e-01</leafValues></_>
        <_>
          <internalNodes>
            0 -1 200 7.1039639413356781e-02</internalNodes>
          <leafValues>
            -2.8283917903900146e-01 2.2235551476478577e-01</leafValues></_>
        <_>
          <internalNodes>
            0 -1 124 8.0810545478016138e-04</internalNodes>
          <leafValues>
            -2.3396371304988861e-01 2.9068857431411743e-01</leafValues></_>
        <_>
          <internalNodes>
            0 -1 242 5.6819442659616470e-02</internalNodes>
          <leafValues>
            1.0749889910221100e-01 -6.0500520467758179e-01</leafValues></_>
        <_>
          <internalNodes>
            0 -1 236 -3.6541270092129707e-03</internalNodes>
          <leafValues>
            3.9922913908958435e-01 -1.5825219452381134e-01</leafValues></_>
        <_>
          <internalNodes>
            0 -1 45 -9.7101461142301559e-03</internalNodes>
          <leafValues>
            -6.0424757003784180e-01 1.0088437795639038e-01</leafValues></_>
        <_>
          <internalNodes>
            0 -1 2 -3.3661305904388428e-02</internalNodes>
          <leafValues>
            -5.7916086912155151e-01 1.1448109894990921e-01</leafValues></_>
        <_>
          <internalNodes>
            0 -1 34 -1.6564717952860519e-05</internalNodes>
          <leafValues>
            2.8396052122116089e-01 -2.5758373737335205e-01</leafValues></_>
        <_>
          <internalNodes>
            0 -1 119 -1.2130884453654289e-02</internalNodes>
          <leafValues>
            6.8163156509399414e-01 -8.9023619890213013e-02</leafValues></_>
        <_>
          <internalNodes>
            0 -1 229 -1.2737241377180908e-05</internalNodes>
          <leafValues>
            3.0634951591491699e-01 -2.1677787601947784e-01</leafValues></_>
        <_>
          <internalNodes>
            0 -1 140 -1.7601254512555897e-04</internalNodes>
          <leafValues>
            3.4656026959419250e-01 -1.8273441493511200e-01</leafValues></_>
        <_>
          <internalNodes>
            0 -1 109 3.1071001291275024e-01</internalNodes>
          <leafValues>
            -1.4884310960769653e-01 4.0587157011032104e-01</leafValues></_>
        <_>
          <internalNodes>
            0 -1 194 7.4319085106253624e-03</internalNodes>
          <leafValues>
            -2.4823229014873505e-01 2.9833433032035828e-01</leafValues></_>
        <_>
          <internalNodes>
            0 -1 171 4.4729042798280716e-02</internalNodes>
          <leafValues>
            -1.3566970825195313e-01 5.7786071300506592e-01</leafValues></_>
        <_>
          <internalNodes>
            0 -1 104 -1.5306664630770683e-02</internalNodes>
          <leafValues>
            6.9570833444595337e-01 -1.0498570650815964e-01</leafValues></_>
        <_>
          <internalNodes>
            0 -1 61 4.8432491719722748e-02</internalNodes>
          <leafValues>
            -3.0397495627403259e-01 2.5185215473175049e-01</leafValues></_>
        <_>
          <internalNodes>
            0 -1 257 -2.2159293293952942e-03</internalNodes>
          <leafValues>
            3.8056698441505432e-01 -1.8469300866127014e-01</leafValues></_></weakClassifiers></_>
    <!-- stage 10 -->
    <_>
      <maxWeakCount>20</maxWeakCount>
      <stageThreshold>-1.2534066438674927e+00</stageThreshold>
      <weakClassifiers>
        <_>
          <internalNodes>
            0 -1 217 -3.8684289902448654e-03</internalNodes>
          <leafValues>
            5.6451611220836639e-02 -5.2768164873123169e-01</leafValues></_>
        <_>
          <internalNodes>
            0 -1 255 4.5318249613046646e-03</internalNodes>
          <leafValues>
            -1.4461606740951538e-01 5.7513403892517090e-01</leafValues></_>
        <_>
          <internalNodes>
            0 -1 268 -3.4933441784232855e-03</internalNodes>
          <leafValues>
            4.6543005108833313e-01 -1.3148540258407593e-01</leafValues></_>
        <_>
          <internalNodes>
            0 -1 52 8.9289415627717972e-03</internalNodes>
          <leafValues>
            7.6618768274784088e-02 -8.2045978307723999e-01</leafValues></_>
        <_>
          <internalNodes>
            0 -1 18 -1.7103899270296097e-02</internalNodes>
          <leafValues>
            -7.2586828470230103e-01 8.8474266231060028e-02</leafValues></_>
        <_>
          <internalNodes>
            0 -1 65 5.9555154293775558e-03</internalNodes>
          <leafValues>
            -8.1430196762084961e-02 6.9045758247375488e-01</leafValues></_>
        <_>
          <internalNodes>
            0 -1 29 8.3451017737388611e-02</internalNodes>
          <leafValues>
            9.2724286019802094e-02 -6.2673181295394897e-01</leafValues></_>
        <_>
          <internalNodes>
            0 -1 160 9.8514351993799210e-03</internalNodes>
          <leafValues>
            -3.9934444427490234e-01 1.3300086557865143e-01</leafValues></_>
        <_>
          <internalNodes>
            0 -1 118 -8.3792656660079956e-03</internalNodes>
          <leafValues>
            6.4061653614044189e-01 -8.6441218852996826e-02</leafValues></_>
        <_>
          <internalNodes>
            0 -1 286 -5.9370025992393494e-03</internalNodes>
          <leafValues>
            5.4161995649337769e-01 -9.5717266201972961e-02</leafValues></_>
        <_>
          <internalNodes>
            0 -1 272 1.3643577694892883e-03</internalNodes>
          <leafValues>
            -2.0793606340885162e-01 2.3522870242595673e-01</leafValues></_>
        <_>
          <internalNodes>
            0 -1 6 3.0931860674172640e-03</internalNodes>
          <leafValues>
            2.2360187768936157e-01 -2.3067888617515564e-01</leafValues></_>
        <_>
          <internalNodes>
            0 -1 90 -8.4509458392858505e-03</internalNodes>
          <leafValues>
            -9.0903800725936890e-01 6.7958533763885498e-02</leafValues></_>
        <_>
          <internalNodes>
            0 -1 234 -1.8116829451173544e-03</internalNodes>
          <leafValues>
            4.8198539018630981e-01 -1.2849523127079010e-01</leafValues></_>
        <_>
          <internalNodes>
            0 -1 151 -2.4174915160983801e-03</internalNodes>
          <leafValues>
            2.9252111911773682e-01 -1.9071276485919952e-01</leafValues></_>
        <_>
          <internalNodes>
            0 -1 325 -1.0181867983192205e-03</internalNodes>
          <leafValues>
            3.5789021849632263e-01 -1.6384477913379669e-01</leafValues></_>
        <_>
          <internalNodes>
            0 -1 197 3.1795683316886425e-03</internalNodes>
          <leafValues>
            -1.1728975921869278e-01 5.7312899827957153e-01</leafValues></_>
        <_>
          <internalNodes>
            0 -1 88 1.3079626951366663e-03</internalNodes>
          <leafValues>
            -2.4821458756923676e-01 2.4768294394016266e-01</leafValues></_>
        <_>
          <internalNodes>
            0 -1 205 -2.8105257079005241e-03</internalNodes>
          <leafValues>
            5.6251567602157593e-01 -1.0231333225965500e-01</leafValues></_>
        <_>
          <internalNodes>
            0 -1 224 3.3913035877048969e-03</internalNodes>
          <leafValues>
            1.0810882598161697e-01 -5.7346636056900024e-01</leafValues></_></weakClassifiers></_>
    <!-- stage 11 -->
    <_>
      <maxWeakCount>20</maxWeakCount>
      <stageThreshold>-1.1329247951507568e+00</stageThreshold>
      <weakClassifiers>
        <_>
          <internalNodes>
            0 -1 215 -1.4205232728272676e-03</internalNodes>
          <leafValues>
            4.1860464960336685e-02 -5.0883096456527710e-01</leafValues></_>
        <_>
          <internalNodes>
            0 -1 226 -1.5949640423059464e-02</internalNodes>
          <leafValues>
            4.5874920487403870e-01 -1.4411309361457825e-01</leafValues></_>
        <_>
          <internalNodes>
            0 -1 17 -1.0450518690049648e-02</internalNodes>
          <leafValues>
            -6.0859942436218262e-01 9.1578230261802673e-02</leafValues></_>
        <_>
          <internalNodes>
            0 -1 27 -3.5216900869272649e-05</internalNodes>
          <leafValues>
            3.3690121769905090e-01 -1.5113437175750732e-01</leafValues></_>
        <_>
          <internalNodes>
            0 -1 233 -4.0287032607011497e-04</internalNodes>
          <leafValues>
            2.2808004915714264e-01 -2.2474594414234161e-01</leafValues></_>
        <_>
          <internalNodes>
            0 -1 158 3.1811076041776687e-05</internalNodes>
          <leafValues>
            -2.3525172472000122e-01 2.1092002093791962e-01</leafValues></_>
        <_>
          <internalNodes>
            0 -1 116 8.9474543929100037e-03</internalNodes>
          <leafValues>
            -1.2697933614253998e-01 4.3544110655784607e-01</leafValues></_>
        <_>
          <internalNodes>
            0 -1 230 7.6861386187374592e-03</internalNodes>
          <leafValues>
            -1.3824361562728882e-01 3.4191259741783142e-01</leafValues></_>
        <_>
          <internalNodes>
            0 -1 270 8.0899558961391449e-03</internalNodes>
          <leafValues>
            -5.2154576778411865e-01 1.3827529549598694e-01</leafValues></_>
        <_>
          <internalNodes>
            0 -1 256 -2.8629582375288010e-03</internalNodes>
          <leafValues>
            4.7467386722564697e-01 -1.4432038366794586e-01</leafValues></_>
        <_>
          <internalNodes>
            0 -1 335 9.9324695765972137e-03</internalNodes>
          <leafValues>
            1.8849411606788635e-01 -2.7772581577301025e-01</leafValues></_>
        <_>
          <internalNodes>
            0 -1 40 -6.1284648836590350e-05</internalNodes>
          <leafValues>
            2.0171387493610382e-01 -2.6548615097999573e-01</leafValues></_>
        <_>
          <internalNodes>
            0 -1 177 -4.7275489196181297e-03</internalNodes>
          <leafValues>
            -7.9548609256744385e-01 7.9980023205280304e-02</leafValues></_>
        <_>
          <internalNodes>
            0 -1 186 3.2004380045691505e-05</internalNodes>
          <leafValues>
            -2.4102732539176941e-01 2.1708187460899353e-01</leafValues></_>
        <_>
          <internalNodes>
            0 -1 332 1.2551729567348957e-02</internalNodes>
          <leafValues>
            7.7460452914237976e-02 -7.3153048753738403e-01</leafValues></_>
        <_>
          <internalNodes>
            0 -1 84 -1.6169971786439419e-03</internalNodes>
          <leafValues>
            2.4895413219928741e-01 -2.0817436277866364e-01</leafValues></_>
        <_>
          <internalNodes>
            0 -1 64 8.3568161353468895e-03</internalNodes>
          <leafValues>
            -1.3958294689655304e-01 3.7658080458641052e-01</leafValues></_>
        <_>
          <internalNodes>
            0 -1 146 -2.3606626689434052e-01</internalNodes>
          <leafValues>
            -9.3662136793136597e-01 5.2444327622652054e-02</leafValues></_>
        <_>
          <internalNodes>
            0 -1 48 2.2225819993764162e-03</internalNodes>
          <leafValues>
            -2.2773887217044830e-01 1.9596067070960999e-01</leafValues></_>
        <_>
          <internalNodes>
            0 -1 139 2.1325411275029182e-02</internalNodes>
          <leafValues>
            -2.6084160804748535e-01 2.0468935370445251e-01</leafValues></_></weakClassifiers></_>
    <!-- stage 12 -->
    <_>
      <maxWeakCount>21</maxWeakCount>
      <stageThreshold>-1.1906507015228271e+00</stageThreshold>
      <weakClassifiers>
        <_>
          <internalNodes>
            0 -1 107 2.9726734757423401e-01</internalNodes>
          <leafValues>
            -5.4044115543365479e-01 -2.5316456332802773e-02</leafValues></_>
        <_>
          <internalNodes>
            0 -1 208 5.2204803796485066e-04</internalNodes>
          <leafValues>
            -2.3696371912956238e-01 2.8951853513717651e-01</leafValues></_>
        <_>
          <internalNodes>
            0 -1 75 3.9070975035429001e-03</internalNodes>
          <leafValues>
            -1.9658596813678741e-01 2.8239500522613525e-01</leafValues></_>
        <_>
          <internalNodes>
            0 -1 144 4.3845521286129951e-03</internalNodes>
          <leafValues>
            -1.8864588439464569e-01 2.6308682560920715e-01</leafValues></_>
        <_>
          <internalNodes>
            0 -1 15 8.8287927210330963e-03</internalNodes>
          <leafValues>
            6.1079837381839752e-02 -8.5864591598510742e-01</leafValues></_>
        <_>
          <internalNodes>
            0 -1 86 1.4892017468810081e-02</internalNodes>
          <leafValues>
            -1.1293830722570419e-01 4.1450625658035278e-01</leafValues></_>
        <_>
          <internalNodes>
            0 -1 145 2.2023347264621407e-04</internalNodes>
          <leafValues>
            -1.4833030104637146e-01 3.2826286554336548e-01</leafValues></_>
        <_>
          <internalNodes>
            0 -1 23 -6.1656907200813293e-03</internalNodes>
          <leafValues>
            -4.9398970603942871e-01 1.3711036741733551e-01</leafValues></_>
        <_>
          <internalNodes>
            0 -1 309 -8.1023210659623146e-03</internalNodes>
          <leafValues>
            6.2261033058166504e-01 -1.0122778266668320e-01</leafValues></_>
        <_>
          <internalNodes>
            0 -1 156 -3.8624029606580734e-02</internalNodes>
          <leafValues>
            6.2786215543746948e-01 -9.1283008456230164e-02</leafValues></_>
        <_>
          <internalNodes>
            0 -1 122 8.8336542248725891e-02</internalNodes>
          <leafValues>
            -8.1038311123847961e-02 5.5291092395782471e-01</leafValues></_>
        <_>
          <internalNodes>
            0 -1 7 1.9046332454308867e-04</internalNodes>
          <leafValues>
            -1.4527064561843872e-01 3.4510082006454468e-01</leafValues></_>
        <_>
          <internalNodes>
            0 -1 148 4.2405933141708374e-02</internalNodes>
          <leafValues>
            -1.1402922123670578e-01 3.7144711613655090e-01</leafValues></_>
        <_>
          <internalNodes>
            0 -1 112 7.2429865598678589e-02</internalNodes>
          <leafValues>
            -6.3529342412948608e-02 8.5298329591751099e-01</leafValues></_>
        <_>
          <internalNodes>
            0 -1 11 2.4536852724850178e-03</internalNodes>
          <leafValues>
            -2.3494955897331238e-01 2.0847108960151672e-01</leafValues></_>
        <_>
          <internalNodes>
            0 -1 159 2.1570731769315898e-04</internalNodes>
          <leafValues>
            -1.6888055205345154e-01 2.7702012658119202e-01</leafValues></_>
        <_>
          <internalNodes>
            0 -1 121 5.2899189293384552e-02</internalNodes>
          <leafValues>
            -6.9812282919883728e-02 7.3383235931396484e-01</leafValues></_>
        <_>
          <internalNodes>
            0 -1 55 2.5922746863216162e-04</internalNodes>
          <leafValues>
            -1.7238818109035492e-01 2.7657243609428406e-01</leafValues></_>
        <_>
          <internalNodes>
            0 -1 328 -1.6389406519010663e-03</internalNodes>
          <leafValues>
            5.2100330591201782e-01 -9.2420674860477448e-02</leafValues></_>
        <_>
          <internalNodes>
            0 -1 39 2.6756874285638332e-03</internalNodes>
          <leafValues>
            6.5928444266319275e-02 -7.9680675268173218e-01</leafValues></_>
        <_>
          <internalNodes>
            0 -1 157 -5.3909216076135635e-03</internalNodes>
          <leafValues>
            6.7638647556304932e-01 -8.7099261581897736e-02</leafValues></_></weakClassifiers></_>
    <!-- stage 13 -->
    <_>
      <maxWeakCount>19</maxWeakCount>
      <stageThreshold>-1.1754245758056641e+00</stageThreshold>
      <weakClassifiers>
        <_>
          <internalNodes>
            0 -1 136 -5.4396288469433784e-03</internalNodes>
          <leafValues>
            3.5185185074806213e-01 -4.8919752240180969e-01</leafValues></_>
        <_>
          <internalNodes>
            0 -1 12 2.2815261036157608e-03</internalNodes>
          <leafValues>
            9.4751596450805664e-02 -5.1668059825897217e-01</leafValues></_>
        <_>
          <internalNodes>
            0 -1 243 -2.1813334897160530e-02</internalNodes>
          <leafValues>
            2.5414198637008667e-01 -2.6298531889915466e-01</leafValues></_>
        <_>
          <internalNodes>
            0 -1 10 -2.1038124337792397e-02</internalNodes>
          <leafValues>
            -4.8089417815208435e-01 1.8372042477130890e-01</leafValues></_>
        <_>
          <internalNodes>
            0 -1 19 8.8602468371391296e-02</internalNodes>
          <leafValues>
            9.8968513309955597e-02 -5.6595557928085327e-01</leafValues></_>
        <_>
          <internalNodes>
            0 -1 60 -8.2232300192117691e-03</internalNodes>
          <leafValues>
            -4.1904219985008240e-01 1.3959231972694397e-01</leafValues></_>
        <_>
          <internalNodes>
            0 -1 312 -3.2100860029459000e-02</internalNodes>
          <leafValues>
            -8.2312411069869995e-01 6.4115412533283234e-02</leafValues></_>
        <_>
          <internalNodes>
            0 -1 284 1.0610482422634959e-03</internalNodes>
          <leafValues>
            -1.5685476362705231e-01 3.9826428890228271e-01</leafValues></_>
        <_>
          <internalNodes>
            0 -1 176 1.1506168544292450e-01</internalNodes>
          <leafValues>
            1.4489930868148804e-01 -3.7878140807151794e-01</leafValues></_>
        <_>
          <internalNodes>
            0 -1 297 -2.6244231776217930e-05</internalNodes>
          <leafValues>
            2.3511515557765961e-01 -2.2536642849445343e-01</leafValues></_>
        <_>
          <internalNodes>
            0 -1 298 -4.4317726045846939e-02</internalNodes>
          <leafValues>
            -8.6161768436431885e-01 5.4012231528759003e-02</leafValues></_>
        <_>
          <internalNodes>
            0 -1 13 1.6604157164692879e-02</internalNodes>
          <leafValues>
            3.9769686758518219e-02 -8.6169761419296265e-01</leafValues></_>
        <_>
          <internalNodes>
            0 -1 213 6.4841257408261299e-03</internalNodes>
          <leafValues>
            -1.0227183997631073e-01 5.8256572484970093e-01</leafValues></_>
        <_>
          <internalNodes>
            0 -1 126 3.3211911795660853e-04</internalNodes>
          <leafValues>
            -1.2531124055385590e-01 3.5280406475067139e-01</leafValues></_>
        <_>
          <internalNodes>
            0 -1 326 -1.4306879602372646e-03</internalNodes>
          <leafValues>
            5.7092559337615967e-01 -8.2589104771614075e-02</leafValues></_>
        <_>
          <internalNodes>
            0 -1 35 7.6186954975128174e-03</internalNodes>
          <leafValues>
            9.6932180225849152e-02 -5.3747606277465820e-01</leafValues></_>
        <_>
          <internalNodes>
            0 -1 100 -1.6179035883396864e-03</internalNodes>
          <leafValues>
            5.0353193283081055e-01 -1.1527132987976074e-01</leafValues></_>
        <_>
          <internalNodes>
            0 -1 244 6.4957689028233290e-04</internalNodes>
          <leafValues>
            -2.0364205539226532e-01 2.4794226884841919e-01</leafValues></_>
        <_>
          <internalNodes>
            0 -1 299 4.1399975307285786e-03</internalNodes>
          <leafValues>
            -9.7703605890274048e-02 5.5791932344436646e-01</leafValues></_></weakClassifiers></_>
    <!-- stage 14 -->
    <_>
      <maxWeakCount>24</maxWeakCount>
      <stageThreshold>-1.1749876737594604e+00</stageThreshold>
      <weakClassifiers>
        <_>
          <internalNodes>
            0 -1 280 8.4096249192953110e-03</internalNodes>
          <leafValues>
            -4.8468184471130371e-01 1.6030533611774445e-01</leafValues></_>
        <_>
          <internalNodes>
            0 -1 68 7.3544943006709218e-04</internalNodes>
          <leafValues>
            -1.4248260855674744e-01 3.9841756224632263e-01</leafValues></_>
        <_>
          <internalNodes>
            0 -1 292 -7.8762596240267158e-04</internalNodes>
          <leafValues>
            3.5017591714859009e-01 -1.2750256061553955e-01</leafValues></_>
        <_>
          <internalNodes>
            0 -1 89 -6.9838657975196838e-02</internalNodes>
          <leafValues>
            -9.2603570222854614e-01 5.0591394305229187e-02</leafValues></_>
        <_>
          <internalNodes>
            0 -1 274 3.0264450469985604e-04</internalNodes>
          <leafValues>
            -1.4729773998260498e-01 3.0309015512466431e-01</leafValues></_>
        <_>
          <internalNodes>
            0 -1 223 4.8589771613478661e-03</internalNodes>
          <leafValues>
            7.0433370769023895e-02 -6.3467377424240112e-01</leafValues></_>
        <_>
          <internalNodes>
            0 -1 68 -9.8674476612359285e-04</internalNodes>
          <leafValues>
            5.7518613338470459e-01 -7.2517029941082001e-02</leafValues></_>
        <_>
          <internalNodes>
            0 -1 16 3.5042890813201666e-03</internalNodes>
          <leafValues>
            2.0532266795635223e-01 -2.3459652066230774e-01</leafValues></_>
        <_>
          <internalNodes>
            0 -1 206 1.1049171909689903e-02</internalNodes>
          <leafValues>
            -1.9827942550182343e-01 2.1017123758792877e-01</leafValues></_>
        <_>
          <internalNodes>
            0 -1 108 1.4597960980609059e-03</internalNodes>
          <leafValues>
            -1.4111340045928955e-01 3.5635656118392944e-01</leafValues></_>
        <_>
          <internalNodes>
            0 -1 50 1.1353031732141972e-02</internalNodes>
          <leafValues>
            8.0192759633064270e-02 -7.9957342147827148e-01</leafValues></_>
        <_>
          <internalNodes>
            0 -1 117 -2.4996208958327770e-03</internalNodes>
          <leafValues>
            3.2019105553627014e-01 -1.5085938572883606e-01</leafValues></_>
        <_>
          <internalNodes>
            0 -1 231 4.3852673843502998e-03</internalNodes>
          <leafValues>
            -1.2880486249923706e-01 3.2547980546951294e-01</leafValues></_>
        <_>
          <internalNodes>
            0 -1 291 6.4177322201430798e-05</internalNodes>
          <leafValues>
            -2.1457785367965698e-01 2.0559978485107422e-01</leafValues></_>
        <_>
          <internalNodes>
            0 -1 311 -2.9087678994983435e-03</internalNodes>
          <leafValues>
            4.6496477723121643e-01 -1.0053313523530960e-01</leafValues></_>
        <_>
          <internalNodes>
            0 -1 198 -9.4656916335225105e-03</internalNodes>
          <leafValues>
            3.6824816465377808e-01 -1.2367370724678040e-01</leafValues></_>
        <_>
          <internalNodes>
            0 -1 115 -1.4388880226761103e-03</internalNodes>
          <leafValues>
            3.5664007067680359e-01 -1.2603098154067993e-01</leafValues></_>
        <_>
          <internalNodes>
            0 -1 20 -1.4769805595278740e-02</internalNodes>
          <leafValues>
            -5.2648580074310303e-01 8.3786517381668091e-02</leafValues></_>
        <_>
          <internalNodes>
            0 -1 250 -1.9816770218312740e-03</internalNodes>
          <leafValues>
            2.4651451408863068e-01 -1.8932919204235077e-01</leafValues></_>
        <_>
          <internalNodes>
            0 -1 130 -3.2360661774873734e-02</internalNodes>
          <leafValues>
            3.9379638433456421e-01 -1.1739763617515564e-01</leafValues></_>
        <_>
          <internalNodes>
            0 -1 123 -5.0027333199977875e-03</internalNodes>
          <leafValues>
            4.0950766205787659e-01 -1.1140975356101990e-01</leafValues></_>
        <_>
          <internalNodes>
            0 -1 209 3.4352811053395271e-03</internalNodes>
          <leafValues>
            -1.4497114717960358e-01 3.0113914608955383e-01</leafValues></_>
        <_>
          <internalNodes>
            0 -1 101 -1.3738945126533508e-01</internalNodes>
          <leafValues>
            5.1624941825866699e-01 -8.5916295647621155e-02</leafValues></_>
        <_>
          <internalNodes>
            0 -1 142 3.6851940676569939e-03</internalNodes>
          <leafValues>
            -1.9527414441108704e-01 2.5377571582794189e-01</leafValues></_></weakClassifiers></_>
    <!-- stage 15 -->
    <_>
      <maxWeakCount>23</maxWeakCount>
      <stageThreshold>-1.1662017107009888e+00</stageThreshold>
      <weakClassifiers>
        <_>
          <internalNodes>
            0 -1 219 -4.9153506755828857e-02</internalNodes>
          <leafValues>
            4.9206349253654480e-01 -4.6756151318550110e-01</leafValues></_>
        <_>
          <internalNodes>
            0 -1 150 1.1785019189119339e-02</internalNodes>
          <leafValues>
            -3.9485067129135132e-01 1.1520899087190628e-01</leafValues></_>
        <_>
          <internalNodes>
            0 -1 192 -2.4293279275298119e-02</internalNodes>
          <leafValues>
            -9.0652698278427124e-01 8.5729382932186127e-02</leafValues></_>
        <_>
          <internalNodes>
            0 -1 241 6.4556905999779701e-03</internalNodes>
          <leafValues>
            -1.6241075098514557e-01 2.9908946156501770e-01</leafValues></_>
        <_>
          <internalNodes>
            0 -1 251 -6.0322925448417664e-02</internalNodes>
          <leafValues>
            -5.3106033802032471e-01 8.4768041968345642e-02</leafValues></_>
        <_>
          <internalNodes>
            0 -1 266 -1.2358220294117928e-02</internalNodes>
          <leafValues>
            1.7628280818462372e-01 -3.1296753883361816e-01</leafValues></_>
        <_>
          <internalNodes>
            0 -1 252 1.9141085445880890e-02</internalNodes>
          <leafValues>
            -6.4572177827358246e-02 7.1064138412475586e-01</leafValues></_>
        <_>
          <internalNodes>
            0 -1 214 1.3176538050174713e-02</internalNodes>
          <leafValues>
            -8.6276285350322723e-02 4.5958244800567627e-01</leafValues></_>
        <_>
          <internalNodes>
            0 -1 44 9.3761384487152100e-03</internalNodes>
          <leafValues>
            4.5073155313730240e-02 -8.5383522510528564e-01</leafValues></_>
        <_>
          <internalNodes>
            0 -1 207 -4.6710954047739506e-03</internalNodes>
          <leafValues>
            3.9898633956909180e-01 -1.0970933735370636e-01</leafValues></_>
        <_>
          <internalNodes>
            0 -1 240 -9.1245508519932628e-04</internalNodes>
          <leafValues>
            1.9481268525123596e-01 -2.3847797513008118e-01</leafValues></_>
        <_>
          <internalNodes>
            0 -1 122 -3.7998698651790619e-02</internalNodes>
          <leafValues>
            4.6274694800376892e-01 -1.0645870864391327e-01</leafValues></_>
        <_>
          <internalNodes>
            0 -1 290 5.9103674720972776e-04</internalNodes>
          <leafValues>
            -1.3440130650997162e-01 3.4341555833816528e-01</leafValues></_>
        <_>
          <internalNodes>
            0 -1 300 -2.8881342150270939e-03</internalNodes>
          <leafValues>
            -3.4531340003013611e-01 1.3815104961395264e-01</leafValues></_>
        <_>
          <internalNodes>
            0 -1 262 1.7263953341171145e-03</internalNodes>
          <leafValues>
            -1.8728895485401154e-01 2.4585342407226563e-01</leafValues></_>
        <_>
          <internalNodes>
            0 -1 95 -3.1679536914452910e-04</internalNodes>
          <leafValues>
            2.5691449642181396e-01 -1.7120580375194550e-01</leafValues></_>
        <_>
          <internalNodes>
            0 -1 70 1.0840630158782005e-02</internalNodes>
          <leafValues>
            -1.0633417218923569e-01 4.1304171085357666e-01</leafValues></_>
        <_>
          <internalNodes>
            0 -1 329 1.3478542314260267e-05</internalNodes>
          <leafValues>
            -2.4410319328308105e-01 1.8057715892791748e-01</leafValues></_>
        <_>
          <internalNodes>
            0 -1 189 1.2915357729070820e-05</internalNodes>
          <leafValues>
            -2.3521645367145538e-01 1.8763047456741333e-01</leafValues></_>
        <_>
          <internalNodes>
            0 -1 278 -2.8750961646437645e-03</internalNodes>
          <leafValues>
            2.7108445763587952e-01 -1.8302370607852936e-01</leafValues></_>
        <_>
          <internalNodes>
            0 -1 196 -2.4544341489672661e-02</internalNodes>
          <leafValues>
            3.7579718232154846e-01 -1.2730507552623749e-01</leafValues></_>
        <_>
          <internalNodes>
            0 -1 228 2.5026530027389526e-02</internalNodes>
          <leafValues>
            -7.9830691218376160e-02 5.2397727966308594e-01</leafValues></_>
        <_>
          <internalNodes>
            0 -1 113 -1.3090908527374268e-01</internalNodes>
          <leafValues>
            -8.6354386806488037e-01 5.5442020297050476e-02</leafValues></_></weakClassifiers></_>
    <!-- stage 16 -->
    <_>
      <maxWeakCount>25</maxWeakCount>
      <stageThreshold>-1.2346596717834473e+00</stageThreshold>
      <weakClassifiers>
        <_>
          <internalNodes>
            0 -1 279 2.1390404552221298e-02</internalNodes>
          <leafValues>
            -4.6301776170730591e-01 5.7692307233810425e-01</leafValues></_>
        <_>
          <internalNodes>
            0 -1 31 1.2050355970859528e-01</internalNodes>
          <leafValues>
            -2.5603830814361572e-01 2.1236063539981842e-01</leafValues></_>
        <_>
          <internalNodes>
            0 -1 273 5.7335337623953819e-04</internalNodes>
          <leafValues>
            -1.8293428421020508e-01 2.3627157509326935e-01</leafValues></_>
        <_>
          <internalNodes>
            0 -1 315 -1.4882653020322323e-02</internalNodes>
          <leafValues>
            6.0482531785964966e-01 -6.4551763236522675e-02</leafValues></_>
        <_>
          <internalNodes>
            0 -1 336 -5.9096538461744785e-03</internalNodes>
          <leafValues>
            -4.8378026485443115e-01 9.3989372253417969e-02</leafValues></_>
        <_>
          <internalNodes>
            0 -1 46 9.9279289133846760e-04</internalNodes>
          <leafValues>
            -1.6377311944961548e-01 2.6882591843605042e-01</leafValues></_>
        <_>
          <internalNodes>
            0 -1 259 -1.5809568576514721e-03</internalNodes>
          <leafValues>
            2.1291585266590118e-01 -2.0949186384677887e-01</leafValues></_>
        <_>
          <internalNodes>
            0 -1 166 9.0119034051895142e-02</internalNodes>
          <leafValues>
            5.7525709271430969e-02 -7.9171204566955566e-01</leafValues></_>
        <_>
          <internalNodes>
            0 -1 54 -6.6650778055191040e-02</internalNodes>
          <leafValues>
            2.4494493007659912e-01 -1.8824058771133423e-01</leafValues></_>
        <_>
          <internalNodes>
            0 -1 69 -3.3913008868694305e-02</internalNodes>
          <leafValues>
            7.5986921787261963e-01 -4.0465358644723892e-02</leafValues></_>
        <_>
          <internalNodes>
            0 -1 187 2.5494387373328209e-03</internalNodes>
          <leafValues>
            -8.4285087883472443e-02 4.6341219544410706e-01</leafValues></_>
        <_>
          <internalNodes>
            0 -1 141 6.0295420698821545e-03</internalNodes>
          <leafValues>
            -1.5474314987659454e-01 2.8026410937309265e-01</leafValues></_>
        <_>
          <internalNodes>
            0 -1 182 -6.6291671246290207e-03</internalNodes>
          <leafValues>
            2.9884392023086548e-01 -1.5211465954780579e-01</leafValues></_>
        <_>
          <internalNodes>
            0 -1 181 -2.5028944946825504e-03</internalNodes>
          <leafValues>
            -5.5726695060729980e-01 7.6911516487598419e-02</leafValues></_>
        <_>
          <internalNodes>
            0 -1 211 -7.7177169732749462e-03</internalNodes>
          <leafValues>
            4.1421729326248169e-01 -1.1894658952951431e-01</leafValues></_>
        <_>
          <internalNodes>
            0 -1 92 1.5812021493911743e-01</internalNodes>
          <leafValues>
            5.3070511668920517e-02 -9.2181092500686646e-01</leafValues></_>
        <_>
          <internalNodes>
            0 -1 110 2.2375535219907761e-02</internalNodes>
          <leafValues>
            6.9209605455398560e-02 -5.4490399360656738e-01</leafValues></_>
        <_>
          <internalNodes>
            0 -1 227 3.8499376387335360e-05</internalNodes>
          <leafValues>
            -2.3859094083309174e-01 1.9193057715892792e-01</leafValues></_>
        <_>
          <internalNodes>
            0 -1 131 -5.6819207966327667e-03</internalNodes>
          <leafValues>
            5.0076985359191895e-01 -8.3760403096675873e-02</leafValues></_>
        <_>
          <internalNodes>
            0 -1 62 2.0801469217985868e-03</internalNodes>
          <leafValues>
            1.9285690784454346e-01 -2.5155940651893616e-01</leafValues></_>
        <_>
          <internalNodes>
            0 -1 59 -3.4439153969287872e-03</internalNodes>
          <leafValues>
            -4.0561056137084961e-01 1.5530306100845337e-01</leafValues></_>
        <_>
          <internalNodes>
            0 -1 43 5.4838036885485053e-04</internalNodes>
          <leafValues>
            -1.1845331639051437e-01 3.4757521748542786e-01</leafValues></_>
        <_>
          <internalNodes>
            0 -1 9 4.7656465321779251e-03</internalNodes>
          <leafValues>
            -1.8234151601791382e-01 2.2905920445919037e-01</leafValues></_>
        <_>
          <internalNodes>
            0 -1 225 -2.9147066175937653e-02</internalNodes>
          <leafValues>
            -5.7964044809341431e-01 7.7779084444046021e-02</leafValues></_>
        <_>
          <internalNodes>
            0 -1 38 1.3225851034803782e-05</internalNodes>
          <leafValues>
            -1.8402720987796783e-01 2.3386159539222717e-01</leafValues></_></weakClassifiers></_>
    <!-- stage 17 -->
    <_>
      <maxWeakCount>24</maxWeakCount>
      <stageThreshold>-1.1228892803192139e+00</stageThreshold>
      <weakClassifiers>
        <_>
          <internalNodes>
            0 -1 125 3.6484122276306152e-02</internalNodes>
          <leafValues>
            -6.0506331920623779e-01 -1.9218240678310394e-01</leafValues></_>
        <_>
          <internalNodes>
            0 -1 304 5.4085114970803261e-03</internalNodes>
          <leafValues>
            1.0224969685077667e-01 -4.0755096077919006e-01</leafValues></_>
        <_>
          <internalNodes>
            0 -1 317 1.4074405655264854e-02</internalNodes>
          <leafValues>
            -9.1371126472949982e-02 5.7041740417480469e-01</leafValues></_>
        <_>
          <internalNodes>
            0 -1 327 1.0701637715101242e-02</internalNodes>
          <leafValues>
            1.1591602861881256e-01 -3.7301421165466309e-01</leafValues></_>
        <_>
          <internalNodes>
            0 -1 305 -7.5125098228454590e-03</internalNodes>
          <leafValues>
            -3.5430347919464111e-01 1.5114592015743256e-01</leafValues></_>
        <_>
          <internalNodes>
            0 -1 310 3.1432986259460449e-02</internalNodes>
          <leafValues>
            -5.3251836448907852e-02 7.2461152076721191e-01</leafValues></_>
        <_>
          <internalNodes>
            0 -1 143 8.5824858397245407e-03</internalNodes>
          <leafValues>
            5.3165290504693985e-02 -7.8353369235992432e-01</leafValues></_>
        <_>
          <internalNodes>
            0 -1 174 6.9030178710818291e-03</internalNodes>
          <leafValues>
            -1.5786327421665192e-01 2.5578492879867554e-01</leafValues></_>
        <_>
          <internalNodes>
            0 -1 271 -1.5507251024246216e-02</internalNodes>
          <leafValues>
            -8.1273597478866577e-01 4.9025915563106537e-02</leafValues></_>
        <_>
          <internalNodes>
            0 -1 79 6.9084065034985542e-04</internalNodes>
          <leafValues>
            -1.0795808583498001e-01 4.3478938937187195e-01</leafValues></_>
        <_>
          <internalNodes>
            0 -1 322 -1.6658901004120708e-03</internalNodes>
          <leafValues>
            3.4819844365119934e-01 -1.3264009356498718e-01</leafValues></_>
        <_>
          <internalNodes>
            0 -1 267 -7.9924543388187885e-04</internalNodes>
          <leafValues>
            3.8598424196243286e-01 -1.1520300060510635e-01</leafValues></_>
        <_>
          <internalNodes>
            0 -1 319 -1.8778395315166563e-05</internalNodes>
          <leafValues>
            1.6627688705921173e-01 -2.6248139142990112e-01</leafValues></_>
        <_>
          <internalNodes>
            0 -1 263 6.8491133861243725e-03</internalNodes>
          <leafValues>
            5.9567037969827652e-02 -8.9051204919815063e-01</leafValues></_>
        <_>
          <internalNodes>
            0 -1 129 1.4093011850491166e-04</internalNodes>
          <leafValues>
            -1.6283656656742096e-01 2.7551326155662537e-01</leafValues></_>
        <_>
          <internalNodes>
            0 -1 137 -2.2883489727973938e-02</internalNodes>
          <leafValues>
            5.8126485347747803e-01 -6.7832119762897491e-02</leafValues></_>
        <_>
          <internalNodes>
            0 -1 287 1.4668267685920000e-03</internalNodes>
          <leafValues>
            -1.4547900855541229e-01 3.1760925054550171e-01</leafValues></_>
        <_>
          <internalNodes>
            0 -1 138 2.9441621154546738e-02</internalNodes>
          <leafValues>
            -1.3959176838397980e-01 2.9326933622360229e-01</leafValues></_>
        <_>
          <internalNodes>
            0 -1 67 -1.3138851523399353e-01</internalNodes>
          <leafValues>
            5.0502580404281616e-01 -7.6595559716224670e-02</leafValues></_>
        <_>
          <internalNodes>
            0 -1 323 2.2053029388189316e-02</internalNodes>
          <leafValues>
            -5.5892206728458405e-02 7.4154049158096313e-01</leafValues></_>
        <_>
          <internalNodes>
            0 -1 249 1.3888053596019745e-02</internalNodes>
          <leafValues>
            -1.1969821900129318e-01 3.3068966865539551e-01</leafValues></_>
        <_>
          <internalNodes>
            0 -1 82 -3.2440393697470427e-03</internalNodes>
          <leafValues>
            3.4646034240722656e-01 -1.2797607481479645e-01</leafValues></_>
        <_>
          <internalNodes>
            0 -1 147 -4.4614071957767010e-03</internalNodes>
          <leafValues>
            2.5617349147796631e-01 -1.7614772915840149e-01</leafValues></_>
        <_>
          <internalNodes>
            0 -1 176 2.8635106980800629e-02</internalNodes>
          <leafValues>
            -3.0076172947883606e-01 1.5734452009201050e-01</leafValues></_></weakClassifiers></_>
    <!-- stage 18 -->
    <_>
      <maxWeakCount>22</maxWeakCount>
      <stageThreshold>-1.0394811630249023e+00</stageThreshold>
      <weakClassifiers>
        <_>
          <internalNodes>
            0 -1 203 -8.1120356917381287e-02</internalNodes>
          <leafValues>
            5.5102038383483887e-01 -4.5977860689163208e-01</leafValues></_>
        <_>
          <internalNodes>
            0 -1 222 6.2703236937522888e-02</internalNodes>
          <leafValues>
            1.1774998158216476e-02 -7.7677440643310547e-01</leafValues></_>
        <_>
          <internalNodes>
            0 -1 25 5.0707161426544189e-03</internalNodes>
          <leafValues>
            1.8628323078155518e-01 -2.5199726223945618e-01</leafValues></_>
        <_>
          <internalNodes>
            0 -1 72 4.0520131587982178e-03</internalNodes>
          <leafValues>
            -1.6762383282184601e-01 2.4494476616382599e-01</leafValues></_>
        <_>
          <internalNodes>
            0 -1 56 -1.6974218189716339e-02</internalNodes>
          <leafValues>
            -4.3906137347221375e-01 8.4007225930690765e-02</leafValues></_>
        <_>
          <internalNodes>
            0 -1 128 -1.7691969405859709e-03</internalNodes>
          <leafValues>
            2.6630941033363342e-01 -1.6958580911159515e-01</leafValues></_>
        <_>
          <internalNodes>
            0 -1 185 5.9317231178283691e-02</internalNodes>
          <leafValues>
            -2.5845313072204590e-01 1.6691949963569641e-01</leafValues></_>
        <_>
          <internalNodes>
            0 -1 337 1.6431442927569151e-03</internalNodes>
          <leafValues>
            1.8517836928367615e-01 -2.2158120572566986e-01</leafValues></_>
        <_>
          <internalNodes>
            0 -1 307 -1.1784897185862064e-02</internalNodes>
          <leafValues>
            6.4689743518829346e-01 -6.6183738410472870e-02</leafValues></_>
        <_>
          <internalNodes>
            0 -1 281 1.0907384566962719e-02</internalNodes>
          <leafValues>
            -7.8279778361320496e-02 5.5378991365432739e-01</leafValues></_>
        <_>
          <internalNodes>
            0 -1 221 3.5191904753446579e-02</internalNodes>
          <leafValues>
            -5.7007174938917160e-02 6.2158137559890747e-01</leafValues></_>
        <_>
          <internalNodes>
            0 -1 37 -3.8465820252895355e-02</internalNodes>
          <leafValues>
            -1. 4.3396186083555222e-02</leafValues></_>
        <_>
          <internalNodes>
            0 -1 149 1.2297215871512890e-02</internalNodes>
          <leafValues>
            -1.4009594917297363e-01 3.1666725873947144e-01</leafValues></_>
        <_>
          <internalNodes>
            0 -1 190 2.0561183337122202e-03</internalNodes>
          <leafValues>
            -1.4884574711322784e-01 2.9204756021499634e-01</leafValues></_>
        <_>
          <internalNodes>
            0 -1 180 6.1205020174384117e-03</internalNodes>
          <leafValues>
            -1.6687196493148804e-01 2.6255568861961365e-01</leafValues></_>
        <_>
          <internalNodes>
            0 -1 80 2.0441979169845581e-02</internalNodes>
          <leafValues>
            -1.2520155310630798e-01 3.4190046787261963e-01</leafValues></_>
        <_>
          <internalNodes>
            0 -1 191 2.6611301582306623e-03</internalNodes>
          <leafValues>
            -1.6717386245727539e-01 2.7109628915786743e-01</leafValues></_>
        <_>
          <internalNodes>
            0 -1 178 2.6933043263852596e-03</internalNodes>
          <leafValues>
            8.6167737841606140e-02 -5.1386111974716187e-01</leafValues></_>
        <_>
          <internalNodes>
            0 -1 42 8.7810779223218560e-04</internalNodes>
          <leafValues>
            6.3513115048408508e-02 -5.2461838722229004e-01</leafValues></_>
        <_>
          <internalNodes>
            0 -1 320 -1.1198608204722404e-02</internalNodes>
          <leafValues>
            4.2253717780113220e-01 -9.7455576062202454e-02</leafValues></_>
        <_>
          <internalNodes>
            0 -1 114 2.4791430681943893e-02</internalNodes>
          <leafValues>
            -9.2687353491783142e-02 3.9627721905708313e-01</leafValues></_>
        <_>
          <internalNodes>
            0 -1 164 -2.0064160707988776e-05</internalNodes>
          <leafValues>
            1.9313220679759979e-01 -2.1414946019649506e-01</leafValues></_></weakClassifiers></_>
    <!-- stage 19 -->
    <_>
      <maxWeakCount>28</maxWeakCount>
      <stageThreshold>-1.1411917209625244e+00</stageThreshold>
      <weakClassifiers>
        <_>
          <internalNodes>
            0 -1 331 7.2686718776822090e-03</internalNodes>
          <leafValues>
            -4.5189505815505981e-01 7.5000000000000000e-01</leafValues></_>
        <_>
          <internalNodes>
            0 -1 202 -2.1674835588783026e-03</internalNodes>
          <leafValues>
            3.3777841925621033e-01 -1.5794907510280609e-01</leafValues></_>
        <_>
          <internalNodes>
            0 -1 152 -4.5195229351520538e-02</internalNodes>
          <leafValues>
            -8.2557970285415649e-01 6.2493156641721725e-02</leafValues></_>
        <_>
          <internalNodes>
            0 -1 179 -2.0369764417409897e-02</internalNodes>
          <leafValues>
            3.4513869881629944e-01 -1.2568345665931702e-01</leafValues></_>
        <_>
          <internalNodes>
            0 -1 184 3.0815340578556061e-02</internalNodes>
          <leafValues>
            -1.2170936167240143e-01 3.3450326323509216e-01</leafValues></_>
        <_>
          <internalNodes>
            0 -1 98 1.6859698295593262e-01</internalNodes>
          <leafValues>
            4.5334290713071823e-02 -7.3180156946182251e-01</leafValues></_>
        <_>
          <internalNodes>
            0 -1 94 1.0220385342836380e-01</internalNodes>
          <leafValues>
            -1.1956116557121277e-01 3.2941100001335144e-01</leafValues></_>
        <_>
          <internalNodes>
            0 -1 183 1.1545616388320923e-01</internalNodes>
          <leafValues>
            -8.7924540042877197e-02 6.2042891979217529e-01</leafValues></_>
        <_>
          <internalNodes>
            0 -1 314 1.7704098718240857e-04</internalNodes>
          <leafValues>
            1.7335279285907745e-01 -2.4223765730857849e-01</leafValues></_>
        <_>
          <internalNodes>
            0 -1 47 7.3682134971022606e-03</internalNodes>
          <leafValues>
            4.2466130107641220e-02 -8.4437072277069092e-01</leafValues></_>
        <_>
          <internalNodes>
            0 -1 162 5.0159364938735962e-02</internalNodes>
          <leafValues>
            4.6983066946268082e-02 -7.5468063354492188e-01</leafValues></_>
        <_>
          <internalNodes>
            0 -1 161 2.5374691933393478e-02</internalNodes>
          <leafValues>
            -1.0568156838417053e-01 3.7176841497421265e-01</leafValues></_>
        <_>
          <internalNodes>
            0 -1 133 -3.3962095621973276e-03</internalNodes>
          <leafValues>
            2.7200990915298462e-01 -1.4895738661289215e-01</leafValues></_>
        <_>
          <internalNodes>
            0 -1 33 -7.5787496753036976e-03</internalNodes>
          <leafValues>
            -3.4910413622856140e-01 1.2754349410533905e-01</leafValues></_>
        <_>
          <internalNodes>
            0 -1 85 1.3078196905553341e-02</internalNodes>
          <leafValues>
            -1.0702580213546753e-01 4.0496721863746643e-01</leafValues></_>
        <_>
          <internalNodes>
            0 -1 24 -4.0415432304143906e-03</internalNodes>
          <leafValues>
            -4.9488970637321472e-01 8.4954194724559784e-02</leafValues></_>
        <_>
          <internalNodes>
            0 -1 96 3.9901219308376312e-02</internalNodes>
          <leafValues>
            -9.2255227267742157e-02 4.7333779931068420e-01</leafValues></_>
        <_>
          <internalNodes>
            0 -1 283 -4.9441042356193066e-03</internalNodes>
          <leafValues>
            2.0912764966487885e-01 -1.9275780022144318e-01</leafValues></_>
        <_>
          <internalNodes>
            0 -1 93 8.4092811448499560e-05</internalNodes>
          <leafValues>
            -1.9602116942405701e-01 2.1166981756687164e-01</leafValues></_>
        <_>
          <internalNodes>
            0 -1 8 8.5759279318153858e-04</internalNodes>
          <leafValues>
            1.7357461154460907e-01 -2.3698638379573822e-01</leafValues></_>
        <_>
          <internalNodes>
            0 -1 71 2.5305107235908508e-02</internalNodes>
          <leafValues>
            -1.2632061541080475e-01 3.3465325832366943e-01</leafValues></_>
        <_>
          <internalNodes>
            0 -1 28 5.7817818596959114e-03</internalNodes>
          <leafValues>
            -1.0544993728399277e-01 3.8845479488372803e-01</leafValues></_>
        <_>
          <internalNodes>
            0 -1 77 1.1734156869351864e-03</internalNodes>
          <leafValues>
            2.9897239804267883e-01 -1.4379696547985077e-01</leafValues></_>
        <_>
          <internalNodes>
            0 -1 83 -3.3520078286528587e-03</internalNodes>
          <leafValues>
            3.9383327960968018e-01 -1.0393238812685013e-01</leafValues></_>
        <_>
          <internalNodes>
            0 -1 5 1.6401749104261398e-02</internalNodes>
          <leafValues>
            5.1745705306529999e-02 -8.6482322216033936e-01</leafValues></_>
        <_>
          <internalNodes>
            0 -1 66 -5.6044361554086208e-04</internalNodes>
          <leafValues>
            2.7345457673072815e-01 -1.5580025315284729e-01</leafValues></_>
        <_>
          <internalNodes>
            0 -1 165 7.5687855482101440e-02</internalNodes>
          <leafValues>
            -1.8853488564491272e-01 2.2830986976623535e-01</leafValues></_>
        <_>
          <internalNodes>
            0 -1 303 2.5128766894340515e-02</internalNodes>
          <leafValues>
            -6.1150897294282913e-02 7.1606910228729248e-01</leafValues></_></weakClassifiers></_></stages>
  <features>
    <_>
      <rects>
        <_>
          0 0 1 24 -1.</_>
        <_>
          0 12 1 12 2.</_></rects>
      <tilted>0</tilted></_>
    <_>
      <rects>
        <_>
          0 0 4 24 -1.</_>
        <_>
          0 8 4 8 3.</_></rects>
      <tilted>0</tilted></_>
    <_>
      <rects>
        <_>
          0 0 10 16 -1.</_>
        <_>
          0 0 5 8 2.</_>
        <_>
          5 8 5 8 2.</_></rects>
      <tilted>0</tilted></_>
    <_>
      <rects>
        <_>
          0 0 8 18 -1.</_>
        <_>
          0 9 8 9 2.</_></rects>
      <tilted>0</tilted></_>
    <_>
      <rects>
        <_>
          0 0 20 1 -1.</_>
        <_>
          10 0 10 1 2.</_></rects>
      <tilted>0</tilted></_>
    <_>
      <rects>
        <_>
          0 0 22 1 -1.</_>
        <_>
          11 0 11 1 2.</_></rects>
      <tilted>0</tilted></_>
    <_>
      <rects>
        <_>
          0 1 1 22 -1.</_>
        <_>
          0 12 1 11 2.</_></rects>
      <tilted>0</tilted></_>
    <_>
      <rects>
        <_>
          0 1 4 2 -1.</_>
        <_>
          0 1 2 1 2.</_>
        <_>
          2 2 2 1 2.</_></rects>
      <tilted>0</tilted></_>
    <_>
      <rects>
        <_>
          0 1 6 14 -1.</_>
        <_>
          3 1 3 14 2.</_></rects>
      <tilted>0</tilted></_>
    <_>
      <rects>
        <_>
          0 1 18 4 -1.</_>
        <_>
          0 1 9 2 2.</_>
        <_>
          9 3 9 2 2.</_></rects>
      <tilted>0</tilted></_>
    <_>
      <rects>
        <_>
          0 1 22 2 -1.</_>
        <_>
          11 1 11 2 2.</_></rects>
      <tilted>0</tilted></_>
    <_>
      <rects>
        <_>
          0 1 14 4 -1.</_>
        <_>
          0 3 14 2 2.</_></rects>
      <tilted>0</tilted></_>
    <_>
      <rects>
        <_>
          0 2 1 8 -1.</_>
        <_>
          0 6 1 4 2.</_></rects>
      <tilted>0</tilted></_>
    <_>
      <rects>
        <_>
          0 2 5 6 -1.</_>
        <_>
          0 4 5 2 3.</_></rects>
      <tilted>0</tilted></_>
    <_>
      <rects>
        <_>
          0 2 6 22 -1.</_>
        <_>
          0 13 6 11 2.</_></rects>
      <tilted>0</tilted></_>
    <_>
      <rects>
        <_>
          0 2 18 3 -1.</_>
        <_>
          0 3 18 1 3.</_></rects>
      <tilted>0</tilted></_>
    <_>
      <rects>
        <_>
          0 3 1 18 -1.</_>
        <_>
          0 12 1 9 2.</_></rects>
      <tilted>0</tilted></_>
    <_>
      <rects>
        <_>
          0 4 3 18 -1.</_>
        <_>
          0 13 3 9 2.</_></rects>
      <tilted>0</tilted></_>
    <_>
      <rects>
        <_>
          0 4 6 20 -1.</_>
        <_>
          0 14 6 10 2.</_></rects>
      <tilted>0</tilted></_>
    <_>
      <rects>
        <_>
          0 4 14 10 -1.</_>
        <_>
          7 4 7 10 2.</_></rects>
      <tilted>0</tilted></_>
    <_>
      <rects>
        <_>
          0 4 8 14 -1.</_>
        <_>
          0 11 8 7 2.</_></rects>
      <tilted>0</tilted></_>
    <_>
      <rects>
        <_>
          0 4 22 15 -1.</_>
        <_>
          0 9 22 5 3.</_></rects>
      <tilted>0</tilted></_>
    <_>
      <rects>
        <_>
          0 5 24 18 -1.</_>
        <_>
          8 5 8 18 3.</_></rects>
      <tilted>0</tilted></_>
    <_>
      <rects>
        <_>
          0 6 2 18 -1.</_>
        <_>
          0 15 2 9 2.</_></rects>
      <tilted>0</tilted></_>
    <_>
      <rects>
        <_>
          0 7 1 16 -1.</_>
        <_>
          0 15 1 8 2.</_></rects>
      <tilted>0</tilted></_>
    <_>
      <rects>
        <_>
          0 8 12 5 -1.</_>
        <_>
          4 8 4 5 3.</_></rects>
      <tilted>0</tilted></_>
    <_>
      <rects>
        <_>
          0 9 23 10 -1.</_>
        <_>
          0 14 23 5 2.</_></rects>
      <tilted>0</tilted></_>
    <_>
      <rects>
        <_>
          0 10 1 10 -1.</_>
        <_>
          0 15 1 5 2.</_></rects>
      <tilted>0</tilted></_>
    <_>
      <rects>
        <_>
          0 11 2 12 -1.</_>
        <_>
          1 11 1 12 2.</_></rects>
      <tilted>0</tilted></_>
    <_>
      <rects>
        <_>
          0 11 12 7 -1.</_>
        <_>
          6 11 6 7 2.</_></rects>
      <tilted>0</tilted></_>
    <_>
      <rects>
        <_>
          0 11 22 10 -1.</_>
        <_>
          0 16 22 5 2.</_></rects>
      <tilted>0</tilted></_>
    <_>
      <rects>
        <_>
          0 12 21 12 -1.</_>
        <_>
          7 12 7 12 3.</_></rects>
      <tilted>0</tilted></_>
    <_>
      <rects>
        <_>
          0 14 4 7 -1.</_>
        <_>
          2 14 2 7 2.</_></rects>
      <tilted>0</tilted></_>
    <_>
      <rects>
        <_>
          0 14 10 3 -1.</_>
        <_>
          5 14 5 3 2.</_></rects>
      <tilted>0</tilted></_>
    <_>
      <rects>
        <_>
          0 16 7 2 -1.</_>
        <_>
          0 17 7 1 2.</_></rects>
      <tilted>0</tilted></_>
    <_>
      <rects>
        <_>
          0 17 3 4 -1.</_>
        <_>
          0 19 3 2 2.</_></rects>
      <tilted>0</tilted></_>
    <_>
      <rects>
        <_>
          0 18 8 4 -1.</_>
        <_>
          4 18 4 4 2.</_></rects>
      <tilted>0</tilted></_>
    <_>
      <rects>
        <_>
          0 20 9 4 -1.</_>
        <_>
          0 22 9 2 2.</_></rects>
      <tilted>0</tilted></_>
    <_>
      <rects>
        <_>
          0 21 2 2 -1.</_>
        <_>
          0 21 1 1 2.</_>
        <_>
          1 22 1 1 2.</_></rects>
      <tilted>0</tilted></_>
    <_>
      <rects>
        <_>
          0 21 2 2 -1.</_>
        <_>
          0 22 2 1 2.</_></rects>
      <tilted>0</tilted></_>
    <_>
      <rects>
        <_>
          0 22 8 2 -1.</_>
        <_>
          0 23 8 1 2.</_></rects>
      <tilted>0</tilted></_>
    <_>
      <rects>
        <_>
          0 22 24 1 -1.</_>
        <_>
          8 22 8 1 3.</_></rects>
      <tilted>0</tilted></_>
    <_>
      <rects>
        <_>
          0 23 3 1 -1.</_>
        <_>
          1 23 1 1 3.</_></rects>
      <tilted>0</tilted></_>
    <_>
      <rects>
        <_>
          1 0 2 4 -1.</_>
        <_>
          1 0 1 2 2.</_>
        <_>
          2 2 1 2 2.</_></rects>
      <tilted>0</tilted></_>
    <_>
      <rects>
        <_>
          1 0 3 6 -1.</_>
        <_>
          1 2 3 2 3.</_></rects>
      <tilted>0</tilted></_>
    <_>
      <rects>
        <_>
          1 1 2 18 -1.</_>
        <_>
          1 10 2 9 2.</_></rects>
      <tilted>0</tilted></_>
    <_>
      <rects>
        <_>
          1 2 12 1 -1.</_>
        <_>
          5 2 4 1 3.</_></rects>
      <tilted>0</tilted></_>
    <_>
      <rects>
        <_>
          1 2 14 3 -1.</_>
        <_>
          1 3 14 1 3.</_></rects>
      <tilted>0</tilted></_>
    <_>
      <rects>
        <_>
          1 3 11 6 -1.</_>
        <_>
          1 5 11 2 3.</_></rects>
      <tilted>0</tilted></_>
    <_>
      <rects>
        <_>
          1 3 16 2 -1.</_>
        <_>
          1 4 16 1 2.</_></rects>
      <tilted>0</tilted></_>
    <_>
      <rects>
        <_>
          1 3 22 3 -1.</_>
        <_>
          1 4 22 1 3.</_></rects>
      <tilted>0</tilted></_>
    <_>
      <rects>
        <_>
          1 4 14 12 -1.</_>
        <_>
          8 4 7 12 2.</_></rects>
      <tilted>0</tilted></_>
    <_>
      <rects>
        <_>
          1 4 20 3 -1.</_>
        <_>
          1 5 20 1 3.</_></rects>
      <tilted>0</tilted></_>
    <_>
      <rects>
        <_>
          1 5 2 10 -1.</_>
        <_>
          2 5 1 10 2.</_></rects>
      <tilted>0</tilted></_>
    <_>
      <rects>
        <_>
          1 6 13 12 -1.</_>
        <_>
          1 10 13 4 3.</_></rects>
      <tilted>0</tilted></_>
    <_>
      <rects>
        <_>
          1 7 6 2 -1.</_>
        <_>
          1 7 3 1 2.</_>
        <_>
          4 8 3 1 2.</_></rects>
      <tilted>0</tilted></_>
    <_>
      <rects>
        <_>
          1 7 10 7 -1.</_>
        <_>
          6 7 5 7 2.</_></rects>
      <tilted>0</tilted></_>
    <_>
      <rects>
        <_>
          1 7 16 9 -1.</_>
        <_>
          1 10 16 3 3.</_></rects>
      <tilted>0</tilted></_>
    <_>
      <rects>
        <_>
          1 9 22 10 -1.</_>
        <_>
          1 14 22 5 2.</_></rects>
      <tilted>0</tilted></_>
    <_>
      <rects>
        <_>
          1 10 4 10 -1.</_>
        <_>
          3 10 2 10 2.</_></rects>
      <tilted>0</tilted></_>
    <_>
      <rects>
        <_>
          1 10 10 7 -1.</_>
        <_>
          6 10 5 7 2.</_></rects>
      <tilted>0</tilted></_>
    <_>
      <rects>
        <_>
          1 10 21 11 -1.</_>
        <_>
          8 10 7 11 3.</_></rects>
      <tilted>0</tilted></_>
    <_>
      <rects>
        <_>
          1 13 9 6 -1.</_>
        <_>
          4 13 3 6 3.</_></rects>
      <tilted>0</tilted></_>
    <_>
      <rects>
        <_>
          1 13 18 11 -1.</_>
        <_>
          7 13 6 11 3.</_></rects>
      <tilted>0</tilted></_>
    <_>
      <rects>
        <_>
          1 13 19 3 -1.</_>
        <_>
          1 14 19 1 3.</_></rects>
      <tilted>0</tilted></_>
    <_>
      <rects>
        <_>
          1 14 6 1 -1.</_>
        <_>
          3 14 2 1 3.</_></rects>
      <tilted>0</tilted></_>
    <_>
      <rects>
        <_>
          1 14 9 2 -1.</_>
        <_>
          1 15 9 1 2.</_></rects>
      <tilted>0</tilted></_>
    <_>
      <rects>
        <_>
          1 15 22 6 -1.</_>
        <_>
          12 15 11 6 2.</_></rects>
      <tilted>0</tilted></_>
    <_>
      <rects>
        <_>
          1 16 2 2 -1.</_>
        <_>
          1 16 1 1 2.</_>
        <_>
          2 17 1 1 2.</_></rects>
      <tilted>0</tilted></_>
    <_>
      <rects>
        <_>
          1 17 18 1 -1.</_>
        <_>
          7 17 6 1 3.</_></rects>
      <tilted>0</tilted></_>
    <_>
      <rects>
        <_>
          1 17 22 3 -1.</_>
        <_>
          1 18 22 1 3.</_></rects>
      <tilted>0</tilted></_>
    <_>
      <rects>
        <_>
          1 18 12 6 -1.</_>
        <_>
          1 18 6 3 2.</_>
        <_>
          7 21 6 3 2.</_></rects>
      <tilted>0</tilted></_>
    <_>
      <rects>
        <_>
          1 20 12 4 -1.</_>
        <_>
          1 20 6 2 2.</_>
        <_>
          7 22 6 2 2.</_></rects>
      <tilted>0</tilted></_>
    <_>
      <rects>
        <_>
          1 22 14 2 -1.</_>
        <_>
          1 22 7 1 2.</_>
        <_>
          8 23 7 1 2.</_></rects>
      <tilted>0</tilted></_>
    <_>
      <rects>
        <_>
          1 22 18 2 -1.</_>
        <_>
          1 23 18 1 2.</_></rects>
      <tilted>0</tilted></_>
    <_>
      <rects>
        <_>
          2 0 12 4 -1.</_>
        <_>
          6 0 4 4 3.</_></rects>
      <tilted>0</tilted></_>
    <_>
      <rects>
        <_>
          2 2 14 2 -1.</_>
        <_>
          2 3 14 1 2.</_></rects>
      <tilted>0</tilted></_>
    <_>
      <rects>
        <_>
          2 4 1 18 -1.</_>
        <_>
          2 13 1 9 2.</_></rects>
      <tilted>0</tilted></_>
    <_>
      <rects>
        <_>
          2 5 21 19 -1.</_>
        <_>
          9 5 7 19 3.</_></rects>
      <tilted>0</tilted></_>
    <_>
      <rects>
        <_>
          2 6 3 1 -1.</_>
        <_>
          3 6 1 1 3.</_></rects>
      <tilted>0</tilted></_>
    <_>
      <rects>
        <_>
          2 6 14 6 -1.</_>
        <_>
          2 9 14 3 2.</_></rects>
      <tilted>0</tilted></_>
    <_>
      <rects>
        <_>
          2 12 9 5 -1.</_>
        <_>
          5 12 3 5 3.</_></rects>
      <tilted>0</tilted></_>
    <_>
      <rects>
        <_>
          2 12 6 3 -1.</_>
        <_>
          2 13 6 1 3.</_></rects>
      <tilted>0</tilted></_>
    <_>
      <rects>
        <_>
          2 13 3 3 -1.</_>
        <_>
          2 14 3 1 3.</_></rects>
      <tilted>0</tilted></_>
    <_>
      <rects>
        <_>
          2 13 11 3 -1.</_>
        <_>
          2 14 11 1 3.</_></rects>
      <tilted>0</tilted></_>
    <_>
      <rects>
        <_>
          2 15 4 8 -1.</_>
        <_>
          2 15 2 4 2.</_>
        <_>
          4 19 2 4 2.</_></rects>
      <tilted>0</tilted></_>
    <_>
      <rects>
        <_>
          2 16 6 6 -1.</_>
        <_>
          2 16 3 3 2.</_>
        <_>
          5 19 3 3 2.</_></rects>
      <tilted>0</tilted></_>
    <_>
      <rects>
        <_>
          2 18 12 6 -1.</_>
        <_>
          2 18 6 3 2.</_>
        <_>
          8 21 6 3 2.</_></rects>
      <tilted>0</tilted></_>
    <_>
      <rects>
        <_>
          2 19 14 4 -1.</_>
        <_>
          2 19 7 2 2.</_>
        <_>
          9 21 7 2 2.</_></rects>
      <tilted>0</tilted></_>
    <_>
      <rects>
        <_>
          3 0 9 18 -1.</_>
        <_>
          3 9 9 9 2.</_></rects>
      <tilted>0</tilted></_>
    <_>
      <rects>
        <_>
          3 0 16 2 -1.</_>
        <_>
          3 1 16 1 2.</_></rects>
      <tilted>0</tilted></_>
    <_>
      <rects>
        <_>
          3 0 21 18 -1.</_>
        <_>
          3 9 21 9 2.</_></rects>
      <tilted>0</tilted></_>
    <_>
      <rects>
        <_>
          3 1 15 12 -1.</_>
        <_>
          8 1 5 12 3.</_></rects>
      <tilted>0</tilted></_>
    <_>
      <rects>
        <_>
          3 3 6 3 -1.</_>
        <_>
          3 4 6 1 3.</_></rects>
      <tilted>0</tilted></_>
    <_>
      <rects>
        <_>
          3 7 15 16 -1.</_>
        <_>
          8 7 5 16 3.</_></rects>
      <tilted>0</tilted></_>
    <_>
      <rects>
        <_>
          3 8 7 2 -1.</_>
        <_>
          3 9 7 1 2.</_></rects>
      <tilted>0</tilted></_>
    <_>
      <rects>
        <_>
          3 9 3 12 -1.</_>
        <_>
          3 13 3 4 3.</_></rects>
      <tilted>0</tilted></_>
    <_>
      <rects>
        <_>
          3 10 4 2 -1.</_>
        <_>
          3 10 2 1 2.</_>
        <_>
          5 11 2 1 2.</_></rects>
      <tilted>0</tilted></_>
    <_>
      <rects>
        <_>
          3 10 18 8 -1.</_>
        <_>
          9 10 6 8 3.</_></rects>
      <tilted>0</tilted></_>
    <_>
      <rects>
        <_>
          3 12 11 6 -1.</_>
        <_>
          3 15 11 3 2.</_></rects>
      <tilted>0</tilted></_>
    <_>
      <rects>
        <_>
          3 13 1 3 -1.</_>
        <_>
          3 14 1 1 3.</_></rects>
      <tilted>0</tilted></_>
    <_>
      <rects>
        <_>
          3 15 20 6 -1.</_>
        <_>
          13 15 10 6 2.</_></rects>
      <tilted>0</tilted></_>
    <_>
      <rects>
        <_>
          3 16 4 6 -1.</_>
        <_>
          3 16 2 3 2.</_>
        <_>
          5 19 2 3 2.</_></rects>
      <tilted>0</tilted></_>
    <_>
      <rects>
        <_>
          3 16 7 2 -1.</_>
        <_>
          3 17 7 1 2.</_></rects>
      <tilted>0</tilted></_>
    <_>
      <rects>
        <_>
          3 17 12 1 -1.</_>
        <_>
          9 17 6 1 2.</_></rects>
      <tilted>0</tilted></_>
    <_>
      <rects>
        <_>
          3 19 12 2 -1.</_>
        <_>
          3 19 6 1 2.</_>
        <_>
          9 20 6 1 2.</_></rects>
      <tilted>0</tilted></_>
    <_>
      <rects>
        <_>
          4 0 20 16 -1.</_>
        <_>
          14 0 10 16 2.</_></rects>
      <tilted>0</tilted></_>
    <_>
      <rects>
        <_>
          4 0 11 24 -1.</_>
        <_>
          4 12 11 12 2.</_></rects>
      <tilted>0</tilted></_>
    <_>
      <rects>
        <_>
          4 1 3 6 -1.</_>
        <_>
          5 1 1 6 3.</_></rects>
      <tilted>0</tilted></_>
    <_>
      <rects>
        <_>
          4 2 16 20 -1.</_>
        <_>
          4 12 16 10 2.</_></rects>
      <tilted>0</tilted></_>
    <_>
      <rects>
        <_>
          4 5 12 6 -1.</_>
        <_>
          4 7 12 2 3.</_></rects>
      <tilted>0</tilted></_>
    <_>
      <rects>
        <_>
          4 7 9 11 -1.</_>
        <_>
          7 7 3 11 3.</_></rects>
      <tilted>0</tilted></_>
    <_>
      <rects>
        <_>
          4 7 6 12 -1.</_>
        <_>
          4 11 6 4 3.</_></rects>
      <tilted>0</tilted></_>
    <_>
      <rects>
        <_>
          4 7 18 8 -1.</_>
        <_>
          13 7 9 8 2.</_></rects>
      <tilted>0</tilted></_>
    <_>
      <rects>
        <_>
          4 10 9 5 -1.</_>
        <_>
          7 10 3 5 3.</_></rects>
      <tilted>0</tilted></_>
    <_>
      <rects>
        <_>
          4 11 2 3 -1.</_>
        <_>
          4 12 2 1 3.</_></rects>
      <tilted>0</tilted></_>
    <_>
      <rects>
        <_>
          4 12 16 3 -1.</_>
        <_>
          4 13 16 1 3.</_></rects>
      <tilted>0</tilted></_>
    <_>
      <rects>
        <_>
          4 14 4 3 -1.</_>
        <_>
          4 15 4 1 3.</_></rects>
      <tilted>0</tilted></_>
    <_>
      <rects>
        <_>
          4 15 4 4 -1.</_>
        <_>
          4 15 2 2 2.</_>
        <_>
          6 17 2 2 2.</_></rects>
      <tilted>0</tilted></_>
    <_>
      <rects>
        <_>
          4 15 14 2 -1.</_>
        <_>
          4 15 7 1 2.</_>
        <_>
          11 16 7 1 2.</_></rects>
      <tilted>0</tilted></_>
    <_>
      <rects>
        <_>
          4 16 2 6 -1.</_>
        <_>
          4 16 1 3 2.</_>
        <_>
          5 19 1 3 2.</_></rects>
      <tilted>0</tilted></_>
    <_>
      <rects>
        <_>
          4 16 18 2 -1.</_>
        <_>
          13 16 9 2 2.</_></rects>
      <tilted>0</tilted></_>
    <_>
      <rects>
        <_>
          4 17 12 6 -1.</_>
        <_>
          10 17 6 6 2.</_></rects>
      <tilted>0</tilted></_>
    <_>
      <rects>
        <_>
          4 17 8 3 -1.</_>
        <_>
          4 18 8 1 3.</_></rects>
      <tilted>0</tilted></_>
    <_>
      <rects>
        <_>
          5 1 10 2 -1.</_>
        <_>
          5 2 10 1 2.</_></rects>
      <tilted>0</tilted></_>
    <_>
      <rects>
        <_>
          5 2 15 17 -1.</_>
        <_>
          10 2 5 17 3.</_></rects>
      <tilted>0</tilted></_>
    <_>
      <rects>
        <_>
          5 3 3 1 -1.</_>
        <_>
          6 3 1 1 3.</_></rects>
      <tilted>0</tilted></_>
    <_>
      <rects>
        <_>
          5 3 3 6 -1.</_>
        <_>
          6 3 1 6 3.</_></rects>
      <tilted>0</tilted></_>
    <_>
      <rects>
        <_>
          5 4 6 10 -1.</_>
        <_>
          8 4 3 10 2.</_></rects>
      <tilted>0</tilted></_>
    <_>
      <rects>
        <_>
          5 6 2 2 -1.</_>
        <_>
          5 6 1 1 2.</_>
        <_>
          6 7 1 1 2.</_></rects>
      <tilted>0</tilted></_>
    <_>
      <rects>
        <_>
          5 8 3 15 -1.</_>
        <_>
          5 13 3 5 3.</_></rects>
      <tilted>0</tilted></_>
    <_>
      <rects>
        <_>
          5 12 8 2 -1.</_>
        <_>
          5 12 4 1 2.</_>
        <_>
          9 13 4 1 2.</_></rects>
      <tilted>0</tilted></_>
    <_>
      <rects>
        <_>
          5 13 9 6 -1.</_>
        <_>
          8 13 3 6 3.</_></rects>
      <tilted>0</tilted></_>
    <_>
      <rects>
        <_>
          5 14 7 3 -1.</_>
        <_>
          5 15 7 1 3.</_></rects>
      <tilted>0</tilted></_>
    <_>
      <rects>
        <_>
          5 14 13 3 -1.</_>
        <_>
          5 15 13 1 3.</_></rects>
      <tilted>0</tilted></_>
    <_>
      <rects>
        <_>
          5 14 14 3 -1.</_>
        <_>
          5 15 14 1 3.</_></rects>
      <tilted>0</tilted></_>
    <_>
      <rects>
        <_>
          5 15 2 3 -1.</_>
        <_>
          5 16 2 1 3.</_></rects>
      <tilted>0</tilted></_>
    <_>
      <rects>
        <_>
          5 15 8 4 -1.</_>
        <_>
          5 15 4 2 2.</_>
        <_>
          9 17 4 2 2.</_></rects>
      <tilted>0</tilted></_>
    <_>
      <rects>
        <_>
          5 15 12 4 -1.</_>
        <_>
          11 15 6 4 2.</_></rects>
      <tilted>0</tilted></_>
    <_>
      <rects>
        <_>
          5 19 18 5 -1.</_>
        <_>
          11 19 6 5 3.</_></rects>
      <tilted>0</tilted></_>
    <_>
      <rects>
        <_>
          5 20 2 2 -1.</_>
        <_>
          5 20 1 1 2.</_>
        <_>
          6 21 1 1 2.</_></rects>
      <tilted>0</tilted></_>
    <_>
      <rects>
        <_>
          6 1 12 3 -1.</_>
        <_>
          10 1 4 3 3.</_></rects>
      <tilted>0</tilted></_>
    <_>
      <rects>
        <_>
          6 1 15 2 -1.</_>
        <_>
          11 1 5 2 3.</_></rects>
      <tilted>0</tilted></_>
    <_>
      <rects>
        <_>
          6 1 17 3 -1.</_>
        <_>
          6 2 17 1 3.</_></rects>
      <tilted>0</tilted></_>
    <_>
      <rects>
        <_>
          6 2 15 2 -1.</_>
        <_>
          11 2 5 2 3.</_></rects>
      <tilted>0</tilted></_>
    <_>
      <rects>
        <_>
          6 6 3 1 -1.</_>
        <_>
          7 6 1 1 3.</_></rects>
      <tilted>0</tilted></_>
    <_>
      <rects>
        <_>
          6 6 18 18 -1.</_>
        <_>
          6 6 9 9 2.</_>
        <_>
          15 15 9 9 2.</_></rects>
      <tilted>0</tilted></_>
    <_>
      <rects>
        <_>
          6 9 6 9 -1.</_>
        <_>
          8 9 2 9 3.</_></rects>
      <tilted>0</tilted></_>
    <_>
      <rects>
        <_>
          6 10 3 12 -1.</_>
        <_>
          6 16 3 6 2.</_></rects>
      <tilted>0</tilted></_>
    <_>
      <rects>
        <_>
          6 11 1 10 -1.</_>
        <_>
          6 16 1 5 2.</_></rects>
      <tilted>0</tilted></_>
    <_>
      <rects>
        <_>
          6 11 11 6 -1.</_>
        <_>
          6 14 11 3 2.</_></rects>
      <tilted>0</tilted></_>
    <_>
      <rects>
        <_>
          6 12 10 3 -1.</_>
        <_>
          6 13 10 1 3.</_></rects>
      <tilted>0</tilted></_>
    <_>
      <rects>
        <_>
          6 13 6 8 -1.</_>
        <_>
          8 13 2 8 3.</_></rects>
      <tilted>0</tilted></_>
    <_>
      <rects>
        <_>
          6 13 6 2 -1.</_>
        <_>
          6 13 3 1 2.</_>
        <_>
          9 14 3 1 2.</_></rects>
      <tilted>0</tilted></_>
    <_>
      <rects>
        <_>
          6 15 4 2 -1.</_>
        <_>
          6 15 2 1 2.</_>
        <_>
          8 16 2 1 2.</_></rects>
      <tilted>0</tilted></_>
    <_>
      <rects>
        <_>
          6 15 10 4 -1.</_>
        <_>
          6 15 5 2 2.</_>
        <_>
          11 17 5 2 2.</_></rects>
      <tilted>0</tilted></_>
    <_>
      <rects>
        <_>
          6 15 10 3 -1.</_>
        <_>
          11 15 5 3 2.</_></rects>
      <tilted>0</tilted></_>
    <_>
      <rects>
        <_>
          6 16 2 3 -1.</_>
        <_>
          6 17 2 1 3.</_></rects>
      <tilted>0</tilted></_>
    <_>
      <rects>
        <_>
          6 20 2 4 -1.</_>
        <_>
          7 20 1 4 2.</_></rects>
      <tilted>0</tilted></_>
    <_>
      <rects>
        <_>
          6 21 1 3 -1.</_>
        <_>
          6 22 1 1 3.</_></rects>
      <tilted>0</tilted></_>
    <_>
      <rects>
        <_>
          7 0 14 14 -1.</_>
        <_>
          7 7 14 7 2.</_></rects>
      <tilted>0</tilted></_>
    <_>
      <rects>
        <_>
          7 1 16 5 -1.</_>
        <_>
          15 1 8 5 2.</_></rects>
      <tilted>0</tilted></_>
    <_>
      <rects>
        <_>
          7 2 16 4 -1.</_>
        <_>
          15 2 8 4 2.</_></rects>
      <tilted>0</tilted></_>
    <_>
      <rects>
        <_>
          7 8 9 2 -1.</_>
        <_>
          10 8 3 2 3.</_></rects>
      <tilted>0</tilted></_>
    <_>
      <rects>
        <_>
          7 9 3 9 -1.</_>
        <_>
          8 9 1 9 3.</_></rects>
      <tilted>0</tilted></_>
    <_>
      <rects>
        <_>
          7 9 7 12 -1.</_>
        <_>
          7 15 7 6 2.</_></rects>
      <tilted>0</tilted></_>
    <_>
      <rects>
        <_>
          7 11 7 8 -1.</_>
        <_>
          7 15 7 4 2.</_></rects>
      <tilted>0</tilted></_>
    <_>
      <rects>
        <_>
          7 12 2 2 -1.</_>
        <_>
          7 12 1 1 2.</_>
        <_>
          8 13 1 1 2.</_></rects>
      <tilted>0</tilted></_>
    <_>
      <rects>
        <_>
          7 12 6 6 -1.</_>
        <_>
          7 12 3 3 2.</_>
        <_>
          10 15 3 3 2.</_></rects>
      <tilted>0</tilted></_>
    <_>
      <rects>
        <_>
          7 12 15 12 -1.</_>
        <_>
          12 12 5 12 3.</_></rects>
      <tilted>0</tilted></_>
    <_>
      <rects>
        <_>
          7 16 4 2 -1.</_>
        <_>
          7 16 2 1 2.</_>
        <_>
          9 17 2 1 2.</_></rects>
      <tilted>0</tilted></_>
    <_>
      <rects>
        <_>
          7 16 10 5 -1.</_>
        <_>
          12 16 5 5 2.</_></rects>
      <tilted>0</tilted></_>
    <_>
      <rects>
        <_>
          7 17 2 3 -1.</_>
        <_>
          7 18 2 1 3.</_></rects>
      <tilted>0</tilted></_>
    <_>
      <rects>
        <_>
          7 21 8 2 -1.</_>
        <_>
          7 21 4 1 2.</_>
        <_>
          11 22 4 1 2.</_></rects>
      <tilted>0</tilted></_>
    <_>
      <rects>
        <_>
          8 0 9 4 -1.</_>
        <_>
          8 2 9 2 2.</_></rects>
      <tilted>0</tilted></_>
    <_>
      <rects>
        <_>
          8 0 12 12 -1.</_>
        <_>
          8 6 12 6 2.</_></rects>
      <tilted>0</tilted></_>
    <_>
      <rects>
        <_>
          8 0 16 14 -1.</_>
        <_>
          8 7 16 7 2.</_></rects>
      <tilted>0</tilted></_>
    <_>
      <rects>
        <_>
          8 2 13 2 -1.</_>
        <_>
          8 3 13 1 2.</_></rects>
      <tilted>0</tilted></_>
    <_>
      <rects>
        <_>
          8 3 6 3 -1.</_>
        <_>
          8 4 6 1 3.</_></rects>
      <tilted>0</tilted></_>
    <_>
      <rects>
        <_>
          8 4 9 10 -1.</_>
        <_>
          11 4 3 10 3.</_></rects>
      <tilted>0</tilted></_>
    <_>
      <rects>
        <_>
          8 4 10 6 -1.</_>
        <_>
          8 6 10 2 3.</_></rects>
      <tilted>0</tilted></_>
    <_>
      <rects>
        <_>
          8 5 8 2 -1.</_>
        <_>
          8 6 8 1 2.</_></rects>
      <tilted>0</tilted></_>
    <_>
      <rects>
        <_>
          8 6 6 5 -1.</_>
        <_>
          10 6 2 5 3.</_></rects>
      <tilted>0</tilted></_>
    <_>
      <rects>
        <_>
          8 7 10 15 -1.</_>
        <_>
          13 7 5 15 2.</_></rects>
      <tilted>0</tilted></_>
    <_>
      <rects>
        <_>
          8 9 9 8 -1.</_>
        <_>
          11 9 3 8 3.</_></rects>
      <tilted>0</tilted></_>
    <_>
      <rects>
        <_>
          8 9 7 14 -1.</_>
        <_>
          8 16 7 7 2.</_></rects>
      <tilted>0</tilted></_>
    <_>
      <rects>
        <_>
          8 10 1 3 -1.</_>
        <_>
          8 11 1 1 3.</_></rects>
      <tilted>0</tilted></_>
    <_>
      <rects>
        <_>
          8 16 1 3 -1.</_>
        <_>
          8 17 1 1 3.</_></rects>
      <tilted>0</tilted></_>
    <_>
      <rects>
        <_>
          8 16 3 3 -1.</_>
        <_>
          8 17 3 1 3.</_></rects>
      <tilted>0</tilted></_>
    <_>
      <rects>
        <_>
          8 20 3 4 -1.</_>
        <_>
          9 20 1 4 3.</_></rects>
      <tilted>0</tilted></_>
    <_>
      <rects>
        <_>
          8 20 4 3 -1.</_>
        <_>
          8 21 4 1 3.</_></rects>
      <tilted>0</tilted></_>
    <_>
      <rects>
        <_>
          9 0 2 9 -1.</_>
        <_>
          9 3 2 3 3.</_></rects>
      <tilted>0</tilted></_>
    <_>
      <rects>
        <_>
          9 1 14 4 -1.</_>
        <_>
          9 1 7 2 2.</_>
        <_>
          16 3 7 2 2.</_></rects>
      <tilted>0</tilted></_>
    <_>
      <rects>
        <_>
          9 2 2 6 -1.</_>
        <_>
          9 2 1 3 2.</_>
        <_>
          10 5 1 3 2.</_></rects>
      <tilted>0</tilted></_>
    <_>
      <rects>
        <_>
          9 3 9 9 -1.</_>
        <_>
          9 6 9 3 3.</_></rects>
      <tilted>0</tilted></_>
    <_>
      <rects>
        <_>
          9 4 6 3 -1.</_>
        <_>
          11 4 2 3 3.</_></rects>
      <tilted>0</tilted></_>
    <_>
      <rects>
        <_>
          9 4 9 11 -1.</_>
        <_>
          12 4 3 11 3.</_></rects>
      <tilted>0</tilted></_>
    <_>
      <rects>
        <_>
          9 5 2 6 -1.</_>
        <_>
          9 5 1 3 2.</_>
        <_>
